[array([[-2.43807960e-02,  2.03168400e-03,  5.41188940e-02,
         2.25047470e-02,  5.35470620e-02,  1.24786270e-02,
        -6.22785300e-02,  2.79532750e-02, -2.06498130e-02,
        -3.68843800e-02, -4.06198240e-02, -5.39437640e-02,
         2.76575010e-02,  4.00718500e-01,  5.38127540e-01,
         2.26301850e-01,  6.53205440e-02, -8.66527900e-03,
        -5.02935240e-02,  1.47891340e-02,  5.74413760e-02,
         5.71487840e-03, -2.25810110e-02,  4.96939500e-02,
         2.64606480e-02,  2.83854680e-02,  7.13956700e-02,
         2.73102670e-02, -6.93633600e-02, -8.48314000e-02,
        -4.44845740e-02,  2.41804270e-02,  4.53420130e-01,
         7.20314400e-01,  1.04942990e+00,  1.25452070e+00,
         1.37869310e+00,  1.89506470e+00,  2.16077900e+00,
         1.62806950e+00,  1.99384080e+00,  1.96251000e+00,
        -2.79591980e-01,  2.65952270e-02,  3.49800080e-01,
         5.25077940e-01,  4.24673050e-01, -3.85603300e-01,
         3.27569950e-02,  3.92136780e-01,  1.28949120e+00,
         1.23619430e+00, -2.38214950e-02, -6.31358500e-02,
         9.98566300e-03, -6.63209600e-02, -1.39943510e-02,
         3.13800950e-02,  3.18191700e-02, -5.14782100e-01,
         4.68845780e-01,  6.76238360e-01,  3.59524800e-01,
         1.67977130e+00,  1.67034180e+00,  8.72771560e-01,
         1.65476350e+00,  1.22405460e+00,  9.74587300e-01,
         1.69455310e+00,  6.05434200e-01,  1.47727500e-01,
        -3.92521380e-01, -7.56005800e-01, -3.28864860e-03,
        -6.50284900e-01, -1.06480315e-01, -2.11431030e-02,
         4.08382400e-01,  8.33935300e-01, -1.83580180e-01,
         1.84044030e-01,  4.48562730e-02, -8.58155700e-02,
         3.72665820e-02,  4.37375830e-02,  4.53984800e-01,
        -6.28274200e-02, -1.45628800e-01,  1.43942330e-01,
         5.90748250e-01,  1.42402830e+00,  1.50760340e+00,
         5.73453100e-01,  7.17326600e-01,  6.62951230e-01,
         4.66729670e-01,  5.61422900e-01, -8.83292000e-02,
         6.04236900e-01,  1.55602370e-01, -2.54258750e-01,
        -1.76231060e-01, -3.49085840e-01, -8.56145400e-02,
        -3.65356100e-01, -9.50319400e-01, -7.48603500e-01,
        -1.61536670e+00,  2.82045930e-01, -5.35201020e-02,
        -2.67088750e-02, -5.63152130e-03,  3.33734870e-01,
         5.66490900e-01,  6.46294950e-01,  1.68059360e+00,
         1.65444390e-01,  2.12413860e-01,  8.11755000e-01,
         5.92225400e-01,  4.68634160e-01,  5.50329800e-01,
         1.04072020e-01,  1.78984330e-01,  6.31811400e-02,
         2.38085500e-01,  1.99224260e-02,  2.81922340e-01,
         8.52027200e-02,  2.82656100e-01, -1.69249300e-01,
        -1.60440400e-01,  1.05980960e-01, -2.64330420e-01,
        -1.09020980e+00, -3.89645130e-01, -1.71985420e-01,
        -3.16567720e-01, -3.51047640e-01,  5.24954570e-02,
         6.71687000e-03,  4.17246940e-01,  9.67956900e-01,
         1.80680610e+00, -8.54515800e-01,  1.39627530e-01,
         8.23090900e-01, -1.03452790e-01, -5.56989570e-02,
         3.51600600e-01,  3.80002050e-01,  5.77941540e-01,
         1.72916730e-01,  1.47647600e-01,  1.95413140e-01,
         3.64947830e-01,  1.66899320e-01,  2.41313100e-01,
         2.53467560e-01,  2.01928900e-01,  1.40206620e-01,
        -1.83014180e-01, -7.80275460e-01,  2.74306960e-02,
         1.98904990e-01,  2.89483640e-01,  2.97661750e-01,
         2.61869650e-02,  1.04167870e+00,  3.75091730e-01,
         2.76315360e-01,  3.12716540e-01,  2.14143980e-01,
        -8.67524700e-02, -2.11052180e-01,  1.33118170e-01,
         6.73166000e-02,  2.34658660e-01,  1.41211450e-01,
         3.78158120e-01,  4.02862670e-01,  3.81007220e-01,
         3.54818100e-01,  3.18043260e-01,  2.54278800e-01,
         2.60216400e-01,  1.12149240e-03, -8.42984840e-02,
         1.88127760e-01, -1.14772220e-01, -5.03084960e-01,
         1.21028510e-01,  2.41880550e-01,  7.08967570e-01,
         2.09543820e-02,  2.21649990e-01,  9.53095440e-01,
        -2.26506890e-01, -1.87052150e-01,  5.81868470e-01,
         2.06968860e-01,  1.02991600e-01, -2.75650500e-01,
        -2.47307760e-02,  6.96677100e-02,  1.28970710e-01,
        -4.60913740e-02,  2.11506600e-01,  2.27083650e-01,
         2.02261790e-01,  6.24599640e-01,  4.70520230e-01,
         1.68913860e-01,  1.66647760e-01,  2.84095100e-02,
         1.37645410e-01,  3.53208400e-02, -3.33897230e-01,
        -1.56530900e-01,  3.55998300e-01, -3.80885840e-01,
         2.86142600e-01,  1.14004030e-01, -2.76775570e-01,
        -5.52330550e-01, -5.45106950e-01,  1.25463830e-01,
         7.79327800e-01, -8.72408450e-02,  1.52477650e-01,
        -2.07072140e-01, -2.62127600e-01,  1.29954580e-01,
         1.37721000e-02,  1.42965180e-01,  5.70605300e-02,
         2.99985020e-01,  6.75820860e-02,  6.78378800e-02,
         3.02500000e-01, -8.83654700e-03,  5.13348880e-02,
        -4.64587500e-02, -3.20402180e-01, -2.46090140e-02,
         1.27352360e-01, -5.61474600e-01,  4.01843520e-01,
        -1.38384370e-02,  3.16477230e-02,  1.17008900e-01,
         3.57401550e-01, -8.81205300e-01,  1.76271450e-01,
         8.11756850e-01, -1.27264630e-02, -1.73101010e-01,
         1.70123410e-01,  1.74744680e-01, -7.77850900e-02,
         1.59758240e-02,  2.69472180e-01, -7.01043900e-02,
        -2.06840800e-01,  2.56462840e-01,  9.38731600e-02,
         2.27738480e-01, -5.84807250e-02,  5.94879580e-02,
        -6.35921660e-02, -4.35483700e-02,  1.13365285e-01,
        -2.62352000e-01, -1.76870100e-01, -2.15453760e-01,
        -1.28876250e+00, -3.58245900e-01,  1.58932020e-01,
        -1.00283670e+00,  2.92945150e-01, -8.51145500e-01,
         6.48211300e-01,  7.34379770e-01,  3.68161000e-02,
         2.68253520e-03,  2.18574240e-01, -8.05388600e-03,
        -2.84438110e-02, -1.48295520e-01,  2.12785900e-02,
         1.90509800e-01, -5.23780850e-02, -1.68416110e-01,
        -1.40723990e-01, -5.84864900e-01,  1.10944770e-01,
         1.86860740e-01,  3.10727360e-01,  3.54226500e-01,
         4.38705770e-01,  1.12438550e-01,  1.15088040e-02,
        -3.29166130e-02, -1.03897770e+00, -1.48174070e+00,
        -1.45083740e+00, -7.19977500e-01,  5.71774600e-01,
         1.56225130e-01, -5.45691400e-01,  3.92174300e-01,
        -2.56234700e-01,  5.61386700e-01,  4.00966150e-02,
        -2.20678850e-01,  1.90314870e-01,  1.56396280e-03,
        -2.16762210e-01, -1.77996710e-01,  1.41606540e-01,
         1.44022670e-01,  1.57629450e-01, -1.04014985e-01,
         3.62246900e-02,  1.48733360e-01,  1.86450320e-01,
         2.58579700e-01,  7.71751400e-01,  7.78614160e-01,
         9.23039260e-01,  1.10029580e+00,  7.60286750e-01,
        -5.10383900e-01, -1.10974420e+00,  1.18100470e-02,
         3.65123930e-01,  6.84976940e-01, -9.79366100e-01,
         1.61620440e-01,  2.34796330e-01, -1.52390330e-01,
         1.82589750e-01, -1.13049515e-01, -2.32087570e-01,
         2.41353440e-01, -1.48445630e-02, -1.38535660e-01,
        -5.77457580e-03, -1.75520260e-02,  3.12556860e-01,
         6.03711940e-02,  7.31348800e-02,  2.75935400e-01,
         7.61270900e-02,  3.45132000e-01,  1.30758760e-01,
         8.24645800e-01,  1.26365890e+00,  1.96045240e+00,
         2.21624420e+00,  1.01782630e+00, -5.64796150e-01,
         4.78808160e-01, -1.73942480e-01,  1.10189450e-01,
        -4.46347480e-01,  2.57891920e-01, -3.06581260e-01,
        -6.77083900e-01,  9.46984740e-02,  1.17758885e-01,
        -2.23195200e-02, -1.98201210e-01, -1.10370540e-01,
        -2.37266840e-01, -5.77806980e-02,  3.73500900e-01,
         3.88859780e-01,  4.60279100e-01,  2.11328160e-01,
        -2.27972460e-01,  1.98396460e-01,  2.38608200e-01,
         3.10306070e-01, -1.59102140e-01, -2.64552270e-01,
         1.18896164e-01,  7.70535100e-01,  4.35523400e-01,
        -7.81480900e-01,  3.13824030e-01, -9.46331140e-01,
         8.43290900e-01, -6.95302200e-01, -4.98778050e-01,
         2.20247340e-01, -3.36234200e-01,  2.61132180e-01,
        -6.97087800e-02, -1.86846090e-01, -6.10098100e-02,
        -2.84357420e-02,  2.43814830e-01,  3.34246800e-02,
         4.45201300e-01,  2.16743870e-01, -3.98353970e-02,
        -7.44817100e-02,  2.71449060e-01,  1.84034450e-01,
        -1.05055870e-01, -2.58812730e-01, -1.66699220e-02,
        -5.75543600e-01, -1.64313140e-01, -1.77809300e-01,
        -1.38245780e-02,  2.24821200e-01, -8.56786000e-01,
        -2.57994560e-01,  9.05749560e-01,  1.25496120e-01,
        -8.45776500e-01, -5.41206000e-01, -2.45146430e-02,
        -2.16115800e-01, -3.36575840e-01, -2.16686550e-01,
         1.75143460e-02,  8.74806200e-02,  9.92302450e-02,
         2.93480200e-03,  3.55982100e-01,  1.94425420e-01,
         1.42321770e-01,  9.60294800e-03,  4.82451540e-02,
         3.50149830e-02, -3.81746400e-01, -3.22715370e-01,
        -2.94923000e-01, -1.44290570e-01, -4.30528160e-01,
         2.46711240e-01,  4.63269200e-01,  3.87686730e-01,
         4.52223640e-02,  9.16380500e-01,  1.26569520e+00,
         7.20127800e-01,  1.42169010e-01, -8.77231600e-02,
        -1.78156360e-01,  7.90241500e-02,  1.75501880e-01,
         1.65620360e-01,  1.88678920e-01,  2.51183660e-01,
         4.15104360e-01,  1.05811626e-01,  1.51119810e-01,
        -8.68560150e-02, -3.34876800e-01, -1.58953830e-01,
        -2.25624400e-01,  8.53042200e-03, -1.35134090e-01,
        -2.15170490e-01,  2.94738600e-02,  8.35951600e-02,
        -1.12566860e-01, -1.33664100e-01,  2.58172250e-02,
        -8.43192200e-02,  8.25116630e-01,  6.30353600e-02,
         6.02490300e-01,  1.77725060e-01,  1.23368080e-01,
         9.07475100e-01, -1.18348340e-01, -3.28279470e-01,
         6.01612480e-02,  1.13535720e-01,  2.32035800e-01,
         1.13205540e-01,  2.33373760e-01, -9.03590500e-02,
        -9.56583500e-02,  1.51930630e-02, -1.09982500e-01,
        -3.86135240e-02,  2.24976690e-01, -3.08490960e-01,
         6.72549200e-02, -3.71809040e-01, -1.18571390e-01,
         3.13107740e-02,  3.99717060e-02, -4.18184470e-02,
        -1.07703820e+00, -2.37632380e-01,  8.00686240e-01,
         9.61655440e-01,  5.46946050e-01, -8.56480000e-02,
        -1.92499830e-01, -4.16197420e-01, -2.64543700e-01,
         8.62640740e-02, -9.88311200e-02,  1.72422470e-01,
         5.51223100e-01,  4.05910800e-01,  4.46028400e-02,
        -3.85149100e-01, -5.45499400e-01, -3.89599700e-01,
        -1.35529740e-01,  1.17246080e-01, -1.42163040e-01,
        -1.04924016e-01,  1.90946730e-01,  1.64599780e-01,
        -1.05896490e-01,  1.20683760e-01,  4.65512100e-01,
         7.97140750e-02,  2.30537990e-02, -8.54593100e-01,
        -1.13647780e-01, -2.23917530e-01, -5.53225600e-01,
        -5.75860800e-01,  5.57561200e-02, -7.91801800e-02,
         3.25807800e-01, -2.12112230e-01,  5.83080240e-02,
        -2.14745720e-01, -2.11314280e-01,  2.43759900e-02,
        -1.28013820e-01, -2.95843750e-01, -3.84182000e-01,
        -3.59623300e-01, -1.62335770e-01,  1.19483700e-01,
         4.05934240e-01,  2.46675150e-01,  1.68620880e-01,
         2.25743740e-01, -3.92879140e-02,  3.18127240e-01,
         8.84046440e-01, -1.36663400e-01,  2.05701590e-01,
        -2.89375870e-01, -3.59997750e-01, -5.69297300e-02,
         8.05585500e-01,  7.32427000e-01,  9.18387500e-01,
         3.49580730e-01,  2.51433640e-01,  2.10324240e-01,
         2.88343670e-01, -1.52650200e-01, -1.97156740e-01,
        -8.09962800e-02, -4.03444440e-01, -2.76145300e-01,
        -1.63589280e-01, -1.77995620e-01,  9.79667900e-02,
         2.11353940e-01, -1.79516480e-01,  1.94014580e-01,
         3.16196420e-02,  4.29830280e-01,  1.54376710e-02,
         1.89204600e-01,  6.31543000e-01,  6.17625650e-01,
         9.61230750e-01, -8.79574400e-01, -5.99311000e-02,
        -2.22050030e-01,  1.61720720e+00,  2.25671150e+00,
         8.10684740e-01,  2.92426140e-01, -1.27822010e-01,
         1.95023020e-01,  3.88076640e-02,  1.70996500e-02,
        -4.53808160e-02, -2.45695300e-01, -9.37964700e-02,
        -2.86518400e-01,  7.50901400e-03, -2.16470450e-01,
        -4.37599900e-03,  9.35143900e-02, -2.61911570e-01,
        -4.82862960e-02,  1.03982030e-01,  4.32942720e-01,
        -5.52184540e-02,  4.25620560e-01,  1.99714760e-01,
        -8.29980550e-01,  1.46252080e-01,  2.14383290e-01,
         1.59144130e-01, -2.81345640e-01,  2.40253220e-01,
         7.88736600e-01,  8.03124200e-01,  4.36035960e-01,
         8.41594700e-02,  2.45690320e-01,  2.26902350e-01,
         5.12713160e-02,  1.52853310e-01, -2.00620420e-02,
         1.46392100e-01, -1.31090220e-01, -1.72644090e-02,
        -5.97253600e-02, -1.21710050e-01, -2.13217000e-01,
         2.27455980e-02,  3.60625760e-02,  1.50548640e-01,
         9.38201200e-02, -3.20348350e-01,  3.13741920e-01,
         1.79007650e-01, -5.11977730e-01, -6.41306160e-01,
         9.95930200e-02,  2.59017140e-01, -2.78204680e-02,
         3.49886720e-04,  2.23009370e+00,  1.99180830e+00,
         1.06939480e-01, -6.38119550e-03,  1.31611350e-01,
         1.64920210e-01,  1.06266030e-01,  5.43702020e-02,
         6.77971500e-02,  2.07319070e-01,  6.77025500e-02,
         2.73755000e-01,  4.37921100e-01,  9.88839640e-02,
        -4.20601700e-02,  4.38632800e-01,  2.85058560e-01,
         2.21370620e-01, -2.41857860e-01, -4.03884570e-02,
         5.79304200e-01,  1.00192800e+00, -3.39080240e-01,
        -1.04986270e-01, -4.83536500e-01,  7.65073700e-02,
         4.86384260e-02,  5.64973730e-02, -6.82851300e-01,
         8.33651500e-01,  4.16066640e-03, -7.15640370e-01,
         8.30042140e-02,  1.58287000e-01,  1.14708930e-01,
         8.28173100e-02,  1.58624720e-01,  1.20720700e-01,
         3.89365520e-01,  3.94422170e-01,  4.99166060e-02,
         2.99676620e-02,  5.44847130e-01,  2.93646750e-01,
         4.04097940e-01,  4.06912570e-01,  8.24095460e-02,
        -2.87512180e-01,  6.32925870e-01,  1.50350680e+00,
        -1.14287330e-01, -1.13673010e+00,  1.41326620e-01,
         2.09146440e-02, -7.24387840e-02, -8.35818600e-02,
         1.24642850e+00, -2.05643900e+00, -5.09153540e-01,
        -3.81193940e-03, -2.67406300e-03, -2.47792540e-01,
         6.83825900e-01, -2.16418980e-01,  5.43667730e-01,
        -8.61036600e-02,  7.70475900e-02,  3.78694400e-02,
         3.87782070e-01,  7.84664800e-02,  6.41281500e-01,
         4.32704720e-01,  6.60343600e-01,  1.01540790e+00,
         9.23585650e-01,  1.05491590e+00,  1.17625500e+00,
         1.28537580e+00,  4.09848300e-01, -2.44802790e-01,
         9.34036500e-02,  3.81926370e-02,  7.05515400e-02,
         4.28533030e-02,  5.33564400e-03,  1.04977970e+00,
         1.30858150e+00,  5.63134100e-01,  4.81213330e-01,
         8.13188200e-01,  5.64464800e-01,  4.33853700e-01,
         6.13347600e-01,  1.81300860e-02,  4.89163700e-01,
         4.59583130e-01,  6.60349900e-01,  6.33629600e-01,
         5.74789050e-01,  7.62020230e-01,  7.06645200e-01,
         2.66280260e-01,  6.80915500e-01,  6.68737650e-01,
         1.27972990e-01, -3.41819700e-02,  2.82095600e-01,
         4.70873770e-01,  1.61476430e-03, -1.29100755e-02,
         1.65539680e-02,  4.14006340e-02, -7.44556860e-02,
        -5.99357500e-03,  3.47133200e-01,  8.86810400e-01,
         3.19797250e-01,  2.75574240e-01,  5.77449840e-02,
         6.50199700e-01, -2.74868550e-01, -6.79623400e-02,
         1.09051530e-01, -1.05731750e+00,  3.29223480e-01,
        -6.66620500e-02,  3.14089900e-01, -3.80888820e-01,
        -2.44831300e-01, -3.88108580e-01,  9.62693200e-02,
        -1.62877810e-01, -6.28725230e-01, -5.45671900e-01,
        -3.67505100e-03,  8.04974660e-02, -5.21959800e-02,
        -4.98978300e-02],
       [-8.39835400e-02, -6.07525560e-02, -7.75926400e-02,
        -3.15702100e-02,  2.32597510e-02, -6.04042400e-02,
        -7.82459500e-02,  4.67140000e-02, -5.43565530e-02,
        -3.01948450e-02,  8.00660600e-02,  5.77448400e-02,
         5.22485700e-01,  1.02372550e+00,  8.85413600e-01,
         2.12903400e-01,  3.75629140e-02, -6.32728400e-02,
        -2.48848830e-02,  2.68563630e-04, -1.56803500e-02,
         9.69624500e-03, -6.24310520e-02,  4.54352270e-02,
        -8.57090650e-02,  4.76330500e-03,  4.00845630e-02,
        -4.57615550e-02,  5.47018870e-02, -1.25970770e-02,
         6.95964700e-03, -7.76263600e-02,  2.78100340e-01,
         3.88246600e-01,  5.10620400e-01,  4.56652820e-01,
         5.96819400e-01,  7.74857200e-01,  2.15186140e+00,
        -6.14279700e-01, -6.93148730e-01, -9.31536300e-02,
        -5.98138800e-01, -6.28437460e-01, -2.10424940e-01,
        -2.74189350e-01,  5.26995800e-01,  2.27281060e-01,
         5.82715800e-02, -1.17704816e-01,  8.76145800e-01,
         1.16467710e+00, -6.53544700e-02,  5.79962660e-02,
         2.65167280e-02, -2.09965260e-02, -7.55635500e-02,
         7.76804900e-02,  1.70813280e-01, -1.23532150e+00,
        -6.35176960e-01,  7.52986800e-01, -6.77081050e-01,
        -2.77414350e-01,  3.67930000e-01,  1.48940850e+00,
         4.70783800e-01,  9.47827460e-01,  1.13041420e+00,
         2.80817800e-01,  1.11972570e+00,  4.17538200e-01,
         3.11598200e-01,  2.42718090e-01,  3.82650140e-01,
         1.87641600e-01,  2.84188360e-01,  5.25446360e-01,
         3.80133930e-01,  1.42769780e-01,  1.07402520e+00,
         9.60733950e-01,  1.83223340e-02,  3.85246200e-02,
         2.63178050e-02, -2.73573140e-02,  2.15639600e-01,
        -1.16759200e+00, -3.04682050e-01,  8.51585700e-01,
         7.80929450e-01,  1.22667860e+00,  5.04008050e-01,
         8.07240700e-01,  2.04292220e-01,  7.65311000e-01,
         2.39415480e-01, -1.61261110e-01,  7.04829350e-03,
         3.95735600e-01,  2.01911880e-01, -7.03056100e-02,
        -4.13748200e-01, -1.54206380e-01,  3.16526060e-01,
        -3.30961140e-01, -4.91305680e-01, -2.50097330e-01,
         8.11127800e-02,  8.31230460e-01,  1.07073700e+00,
         4.84831630e-04,  8.65373800e-02, -1.06671125e-01,
         5.38425700e-01, -1.07777760e+00, -6.77313860e-01,
         7.21076850e-01,  8.82256400e-01,  7.63004660e-01,
         2.67854840e-01,  2.83516440e-01,  8.51453360e-01,
         2.84446780e-01,  2.22287010e-01,  6.08547800e-03,
         3.04770300e-01, -1.23238040e-01,  2.14512630e-01,
        -1.90835050e-02,  2.27570400e-03, -3.84848600e-02,
         1.60565530e-02, -1.00547240e-01, -1.51616330e-01,
        -1.85430600e-01,  1.17759970e-01,  5.39326900e-01,
        -3.10392170e-01,  2.81282280e-01, -3.67226200e-02,
        -8.55939300e-02,  6.26226250e-01, -1.10940740e+00,
        -4.27411700e-01, -4.63787760e-02,  1.17484640e-01,
         4.36619250e-01,  3.28072280e-01,  4.83376800e-01,
         2.08285440e-01,  9.79553500e-02,  3.01963900e-01,
        -1.56424670e-01,  2.17512210e-02, -1.03937276e-01,
         3.80420740e-01, -1.43100890e-02,  1.87941280e-01,
        -8.10479700e-02, -6.09875770e-02,  1.38593200e-02,
        -3.41148050e-01,  6.25535300e-02,  1.56929700e-01,
         7.18147800e-01,  7.86021770e-01,  1.42875880e-01,
         8.64527450e-02,  1.94445010e-01,  1.73457100e-02,
        -4.54289700e-01,  7.39709700e-02, -1.77148990e-02,
         1.25560760e-01,  2.54378530e-01, -2.10738140e-01,
        -5.21927800e-02, -3.37683900e-01,  2.70688350e-02,
        -2.84074400e-01, -1.52659710e-01, -2.41239030e-01,
        -1.89760330e-01, -7.64446400e-04, -3.37403600e-01,
        -1.81802530e-01, -2.80079840e-01,  1.24085930e-01,
        -1.43903990e-01, -6.76498100e-02,  4.13608460e-01,
         1.80135830e-01,  4.18081730e-01,  1.95142430e-01,
         8.69424000e-01, -2.54611750e-02,  7.17935140e-01,
         5.77161430e-01, -9.45316800e-01,  3.27455220e-01,
         4.04749250e-02, -5.03852780e-02, -1.73710910e-01,
         2.86534850e-01,  8.22985100e-02, -3.22831960e-01,
         3.58539970e-02, -3.11056640e-01, -2.56389850e-02,
        -3.75569800e-01, -2.80441050e-01, -1.70671220e-01,
        -1.93547110e-01, -2.39587290e-01,  1.18289135e-01,
        -3.74095660e-02, -4.00769670e-02,  2.62850940e-01,
        -2.02276810e-01, -1.75253330e-01, -2.54739800e-01,
         4.48618350e-01,  6.51488800e-01,  3.70479820e-02,
         1.01582940e+00,  9.12395700e-02, -2.32798140e-02,
         7.78749960e-02,  2.45469350e-01, -1.58479740e-01,
        -2.30355370e-01, -5.86391700e-01,  3.58995800e-03,
         1.08695365e-01,  5.13472500e-03, -1.13965176e-01,
        -1.21540420e-01, -2.17680300e-01, -2.46366190e-01,
        -4.52626650e-01, -1.39565350e-01, -2.36779840e-01,
        -1.03399634e-01, -1.50432770e-01, -5.74817060e-02,
        -4.48609770e-01, -2.74875500e-01, -4.13646550e-01,
         6.23134700e-01, -2.55700860e-01,  2.61863190e-02,
         2.55658680e-02, -4.65274630e-01, -6.58105870e-03,
         3.85916650e-01,  8.61329800e-02,  8.15218300e-02,
        -4.88273980e-01, -3.84177900e-01, -4.16847050e-01,
        -9.73614000e-02, -3.32313600e-01, -3.82406800e-02,
        -4.39731070e-02,  4.52166400e-02, -1.24977670e-01,
        -2.76188140e-01, -1.85657600e-01, -1.33044180e-01,
         7.79944200e-02, -3.85041270e-02, -9.48850200e-03,
        -2.01640950e-01, -3.47321120e-01, -4.82184700e-01,
        -3.67534700e-01,  6.14557680e-02, -1.29875150e+00,
        -2.53517450e-01, -3.64795500e-03, -5.17722400e-01,
        -2.40867440e-02, -3.96231400e-01, -1.10820600e-01,
        -2.03020920e-01, -2.30288540e-01, -2.64832740e-01,
        -2.35250710e-01, -2.26827320e-01, -3.11494820e-02,
        -3.84623000e-02,  2.55288240e-01, -3.76986830e-01,
        -1.10796770e+00, -4.59567900e-01, -1.64161830e-01,
         1.59618470e-01,  9.08895300e-02, -3.57786270e-02,
        -7.07312450e-02, -1.41506690e-02, -3.08276360e-01,
        -4.61039040e-01, -4.91605100e-01, -7.08520600e-01,
        -1.07914760e+00, -2.90745970e-01,  4.63048740e-02,
         2.39414240e-01, -4.32120400e-01, -1.12256534e-01,
        -1.87672000e-01,  4.79141470e-01,  1.92311580e-01,
        -3.23274500e-01, -2.58667050e-01, -1.21119380e-01,
        -1.16494300e-01, -6.64559000e-01, -1.78514760e-01,
        -8.89974650e-01, -4.39294580e-01, -5.46599000e-01,
        -2.37833750e-02,  1.00965366e-01, -3.43215300e-02,
         2.37391670e-01,  1.26236560e-01,  1.06091920e-01,
        -1.35955290e-01, -1.43201400e-01, -4.40229540e-01,
        -6.09820660e-01, -2.62589550e+00,  7.32125900e-02,
         4.08580380e-02, -4.06286980e-01,  1.34539200e-01,
         1.16632340e-01, -4.48624430e-01,  5.70703200e-02,
        -2.01597410e-01, -1.55126320e-01, -1.82044370e-01,
        -6.29449900e-01, -2.47360970e-01, -2.18441620e-01,
        -2.75527950e-01, -4.42973850e-01, -4.06011730e-01,
        -2.45920400e-01,  1.97092600e-01, -1.17102190e-02,
         5.28029700e-02,  1.79010230e-01,  3.47326840e-01,
         3.40839200e-01,  3.21759200e-01,  3.20892600e-01,
         6.35284540e-01,  2.25094940e-01, -4.25455870e-01,
         1.52312160e-01,  1.16708720e-01, -5.27843530e-01,
        -3.90748770e-01, -1.03350910e-01, -5.28133630e-01,
         6.69786100e-02,  3.83705600e-02, -9.29675300e-02,
         2.15400130e-01,  2.23062520e-01,  1.28584600e-01,
         2.31252580e-01, -1.04786630e-01, -9.27210000e-03,
        -1.35155660e-01,  4.43181130e-02,  7.59913200e-03,
         1.27924900e-01, -7.30449700e-02,  1.15360850e-01,
         8.38623400e-03,  2.11039960e-01,  1.29518970e-01,
         1.14331560e+00,  1.01434590e+00,  8.19505040e-01,
         3.35215800e-01,  8.09199870e-01, -1.86319350e-02,
        -1.45426580e-03, -1.04414220e+00,  7.01766800e-01,
         4.54482800e-01,  2.69520580e-02,  3.51882100e-02,
         5.53815960e-01,  3.09617460e-01,  4.33757840e-01,
         1.24995710e-01,  2.52636160e-01,  5.66997900e-02,
         1.59514860e-01, -1.45705240e-01,  4.56431700e-02,
         1.20876840e-01, -2.35937570e-02, -1.09897530e-01,
         2.30567020e-01, -6.27873000e-02,  1.68097720e-01,
         5.46358170e-01,  2.94427720e-01,  4.25881480e-01,
         4.89925120e-01,  4.48409300e-01,  7.07293200e-01,
        -4.08414230e-02,  2.68286730e-01, -6.15196400e-01,
         1.12253830e+00,  2.24939390e-01,  3.88411220e-01,
         4.24395100e-01,  2.35921100e-02,  3.46347480e-01,
         2.43918970e-01,  2.41374080e-01, -7.71540300e-03,
        -9.36152000e-02, -6.80774450e-02,  2.59226620e-01,
         4.27274740e-02,  1.62260770e-01,  2.42999170e-01,
         7.21804200e-02,  8.62069400e-02, -4.10455050e-01,
         3.30357900e-02,  3.40251830e-01,  2.62365530e-02,
        -1.04164380e-01,  1.10871120e+00,  8.81196740e-01,
         1.44478060e+00,  6.89324740e-03,  1.41618620e-01,
        -6.54292900e-01,  6.31336150e-01, -2.43994650e-01,
         1.48135040e-01,  3.68738470e-01,  2.82150700e-01,
         2.11801290e-04,  3.53155310e-01,  2.29605560e-01,
         4.63349300e-01,  8.55236000e-02,  3.43690750e-01,
         4.47765600e-01,  4.21173360e-01,  4.51384000e-01,
         6.35080800e-01,  3.44726900e-01,  4.12147970e-01,
         3.09919030e-01,  3.93798000e-01, -8.48029900e-02,
        -1.54188350e-01,  6.62221500e-01,  1.50806420e+00,
         9.24246300e-02,  7.87225800e-01, -5.78317500e-02,
        -4.31848400e-01,  4.54599620e-01, -3.19435950e-01,
         5.62643260e-02,  1.48106730e-02,  2.72267250e-01,
         2.49158200e-01,  3.00226600e-01,  3.84112060e-01,
         3.41146500e-01,  3.50360450e-01, -7.23847450e-02,
         3.57788030e-01,  5.30689840e-01,  4.22100930e-01,
         3.05506320e-01,  3.22318800e-01,  4.02219030e-01,
         6.78982140e-02,  3.90499400e-01,  6.60561600e-01,
         9.55243200e-02,  4.56912370e-02, -6.44716200e-01,
         1.59870850e+00, -4.76859000e-01,  3.42299760e-01,
        -1.16287210e-01, -6.09757200e-01, -4.83923640e-01,
        -1.22993800e-02,  2.97677800e-01, -7.67810940e-02,
        -1.20543600e-01,  2.91208240e-01,  1.47036630e-01,
         2.19221300e-01, -2.22707420e-01,  4.20151500e-02,
         4.77321620e-01,  2.35652270e-01,  3.69007920e-01,
         1.09572470e-01,  4.14632000e-01,  2.12286300e-01,
         3.61097750e-01,  3.83104600e-01,  1.07363440e-01,
         3.92397820e-01,  1.42543390e-01,  3.78084240e-01,
         8.80452160e-01,  1.33357230e+00,  1.63586240e-01,
         1.72156310e+00, -7.30780050e-03, -6.88921630e-01,
        -5.15276600e-01, -2.96949100e-01, -6.73561900e-02,
         1.27578800e-01, -2.37721370e-01,  1.15441050e-01,
        -4.10184080e-02, -2.64267600e-01,  3.17647420e-02,
         1.60721760e-01, -1.92329620e-01,  2.21635300e-01,
         2.53303020e-01,  3.47734200e-01,  3.11197220e-01,
         2.87422660e-01,  1.66546060e-01,  2.96871930e-01,
         1.09167690e-01,  2.76324040e-02, -2.42609780e-01,
        -9.26328100e-02,  4.67534750e-01,  2.95747220e-01,
         3.14080800e+00,  1.26217870e+00,  2.05659120e-03,
        -3.14702180e-01, -2.61071860e-01, -4.49608530e-01,
         1.58883650e-01,  1.63169320e-01, -1.06724520e-01,
        -1.70855080e-01, -1.91941260e-02, -1.40034110e-01,
        -5.25205000e-02, -1.99736330e-01, -1.62829380e-01,
        -1.69208720e-01,  4.97096900e-02,  3.03656640e-01,
         2.51697660e-01,  1.13461345e-01,  4.14962700e-01,
         1.85869700e-01,  3.02586970e-02,  8.12512800e-02,
        -5.37163200e-01, -1.05579220e-01, -6.62686600e-02,
        -1.47917690e-01,  2.37123750e+00,  1.07305390e-01,
         1.23923890e-01,  9.15812550e-01, -5.88378130e-01,
        -3.18693430e-01, -5.90381300e-01,  2.10370360e-01,
        -4.49897680e-01, -2.98754660e-01,  3.23998000e-01,
        -1.61414550e-01,  1.81287050e-01, -1.66059200e-01,
         5.19020900e-02,  3.70834770e-02,  1.99602200e-02,
        -6.88417000e-02, -1.70370300e-01,  1.27527030e-01,
        -1.29734620e-01,  1.07310930e-01, -9.66573500e-02,
        -2.22114380e-01, -3.68168770e-01,  4.16587100e-01,
        -3.14598800e-01,  2.87415650e-01,  4.62075830e-01,
        -5.51386650e-01,  7.15855840e-03, -7.14968660e-03,
         2.00615050e-01,  1.43635330e-01, -4.27348900e-02,
         1.81307960e-01, -5.09585800e-01,  5.40158100e-02,
        -6.42116140e-02, -1.18125420e-01,  2.08293300e-01,
        -2.52301280e-02, -4.31344600e-01,  1.26696830e-02,
        -4.15743860e-01, -2.95170100e-01, -5.17596200e-01,
        -5.60304400e-01, -3.16487500e-01, -1.04918940e-01,
        -5.71262500e-02,  2.12130300e-01,  1.25998420e-01,
        -3.50356900e-01, -1.80176680e-01, -2.90242220e-01,
        -2.16646870e-01, -6.37332560e-01,  6.11908960e-02,
        -2.68907210e-02,  9.58483140e-02, -1.92695200e-01,
        -1.95998640e-01,  8.68061960e-04,  3.15723900e-03,
        -4.28816000e-01, -8.27062300e-02, -4.41378580e-02,
        -3.31140220e-01,  4.17564140e-02, -3.43565100e-01,
        -2.92033880e-01, -1.14272540e-01, -4.19385340e-01,
        -7.73995500e-01, -7.34402700e-01, -5.44932100e-02,
        -2.43806560e-01, -2.23455030e-01,  5.43469600e-01,
         3.43232000e-02, -1.70805680e-01, -3.58956800e-01,
        -1.83545430e-02, -3.16197370e-01, -2.16156020e-02,
         1.91001220e-02,  6.60597760e-02, -5.17040200e-01,
        -1.09956010e+00, -3.11581820e-01,  1.28190500e-01,
        -4.36385000e-02, -2.39048810e-01,  9.43362200e-02,
        -1.80439810e-01, -5.44892300e-01,  3.83443500e-02,
         1.97206020e-01, -1.06952764e-01, -2.45943770e-01,
        -1.86230320e-01,  1.33838310e-01,  1.28058240e-01,
        -7.17683300e-02,  1.02205590e-02, -4.19351760e-01,
        -1.99787750e-01, -4.02250260e-01, -1.73649610e-01,
        -3.98357330e-01,  1.06200920e+00,  8.50063600e-01,
         4.93376630e-02,  7.44503960e-02,  3.89631470e-02,
         4.32140440e-01, -4.36105520e-01,  6.37471500e-01,
        -4.90503200e-01,  1.09662120e-01,  5.91843100e-02,
         1.83392000e-01, -4.99748320e-01, -7.53947000e-01,
        -9.51953500e-02, -2.44945540e-01, -2.32457440e-01,
        -3.80171800e-02,  3.80963300e-01,  5.31075200e-01,
         5.57054130e-02,  1.03594880e-02, -1.57296800e-01,
         2.71686900e-01, -1.66587510e-02, -8.89453400e-01,
        -1.44381770e-02, -1.38237540e-01,  1.13013370e+00,
         8.11187100e-01, -6.45441860e-02,  2.97864300e-02,
         5.94470870e-02,  1.92764330e-02, -3.81842230e-01,
         7.23881660e-01,  9.25328500e-02,  6.03408700e-01,
         5.74206100e-01,  4.40149960e-01, -3.15916450e-01,
        -2.23237340e-01,  7.79728500e-02,  2.30801730e-01,
         2.27574350e-01, -6.81277100e-01, -3.67397730e-01,
        -2.91393370e-01, -1.05629510e-01, -9.53093250e-02,
         1.05500590e-01, -2.30302200e-01,  3.21494430e-01,
        -2.51630130e-01, -2.69597380e-01, -3.71840400e-01,
        -2.94546200e-01, -5.59151320e-02,  2.12544130e-02,
        -3.40972950e-02,  7.63583930e-03, -7.64297100e-02,
         3.12976540e-04, -6.18939470e-02, -8.29541160e-02,
         3.81807600e-01,  3.92181720e-01,  2.96503480e-01,
         1.72976360e-01, -2.51540120e-01,  4.20025900e-02,
        -4.16517200e-01, -8.68268760e-02,  3.45298280e-02,
         7.99387500e-01, -2.40956500e-01, -8.17016900e-01,
        -2.54996600e-01,  1.02798650e+00,  1.02510180e+00,
         3.86565100e-01, -6.52689700e-02, -7.77567300e-01,
        -6.98156360e-02,  3.21456940e-02, -2.12177490e-02,
         6.09748070e-04],
       [ 3.77127980e-02,  5.89253980e-02,  3.94614560e-02,
        -3.14190800e-02, -6.17248940e-02,  3.48015500e-02,
        -1.30131020e-02,  5.82103800e-02, -8.00386200e-02,
        -6.40469000e-02,  2.64698490e-02,  3.70023400e-03,
         1.61879770e-02, -1.47258180e-01, -2.98122600e-01,
        -5.69555280e-02, -3.12799300e-02,  4.02107460e-02,
         6.87560660e-02,  2.53807600e-02, -3.06673350e-04,
         3.51701750e-02, -7.34027900e-02,  4.42554060e-03,
        -6.85488100e-02, -5.45472500e-02,  7.04736040e-02,
        -7.96455000e-02, -2.30893050e-02,  6.09029600e-02,
         8.27731600e-02,  5.31148840e-02, -6.91488400e-03,
        -2.11626650e-01, -9.17431700e-01, -9.75376800e-01,
        -8.94871600e-01, -8.42469700e-01, -2.51468630e-01,
        -4.20852000e-01, -1.91408320e+00,  8.96436650e-02,
         8.46625750e-01, -2.27802630e+00, -1.06609670e+00,
        -9.29590000e-01, -8.39476940e-01, -6.25014500e-01,
        -6.47297700e-01, -2.01618060e-01, -2.87207500e-01,
        -2.62572080e-01,  8.06997700e-03, -7.57723300e-03,
         7.52026800e-02, -2.69998830e-02, -1.84313280e-02,
        -6.12791900e-02, -9.03500700e-03, -7.88385750e-01,
        -7.05142560e-01,  5.74550400e-02, -8.11598840e-01,
        -1.64957180e+00, -1.92072370e+00, -1.79786190e+00,
        -1.66366370e+00, -1.92385830e+00, -2.41858580e+00,
        -3.12263070e-01,  2.28608640e-01, -2.60500250e-01,
        -8.93421530e-01, -9.34839070e-01, -8.81487900e-01,
        -4.32978400e-01, -2.93663300e-02, -4.03524820e-01,
        -6.55095300e-02, -8.83092050e-01, -3.28887020e-01,
        -3.85541950e-02, -3.98697670e-02,  8.00966700e-02,
        -3.68112400e-02, -6.68157200e-02,  4.05940450e-02,
        -9.07993850e-01, -7.55923330e-01, -3.59692000e-01,
        -9.12359950e-01, -8.15222700e-01, -7.02269600e-01,
        -1.06107890e+00, -9.52502250e-01, -8.27451000e-01,
        -1.32458040e+00, -1.27747890e+00, -3.98838070e-01,
        -1.06409240e+00, -2.14413290e-01, -7.70460800e-02,
        -3.63543480e-02,  6.12589800e-01,  6.82173250e-01,
         6.89184840e-01,  4.13081350e-01,  2.23044540e-01,
         4.29207770e-01, -1.20391770e+00,  7.46022400e-02,
         3.32452880e-02, -2.86419020e-02, -2.87458190e-02,
        -8.45080100e-02,  5.49893860e-02,  7.05769840e-01,
        -4.35614020e-01, -6.59482100e-01,  5.68708000e-02,
         1.86234950e-01,  3.84986070e-01,  4.98315870e-01,
         2.04414780e-02, -2.31400360e-01, -2.83883400e-01,
        -1.63455740e-02, -5.02297760e-01,  2.89952220e-01,
         7.74292600e-02, -3.86396500e-01,  3.27736400e-01,
         9.82780700e-02,  5.20385200e-01,  8.38625130e-01,
         1.12424400e+00,  1.12309960e+00,  5.80614400e-01,
        -2.08004900e-01,  2.63726410e-02,  4.13256360e-02,
        -1.53414680e-02, -3.85355400e-01, -1.55047000e+00,
        -8.26841700e-01, -7.93808340e-01, -9.49790250e-02,
        -1.31886320e-01,  5.12807700e-01,  2.69641300e-01,
        -1.04010400e-01, -1.98055060e-01,  1.18661130e-01,
         2.54759940e-01, -2.25280180e-01,  3.03955320e-01,
         8.82488400e-03,  1.70809100e-02,  6.84695700e-02,
         2.09183870e-01,  2.88528350e-01, -3.07527330e-01,
         2.57074500e-01, -2.05762310e-01,  9.50889600e-02,
        -7.01169500e-01, -5.74321400e-01,  1.12934390e-02,
         8.63777800e-02,  6.58158400e-02,  5.92592100e-01,
         2.17574370e-01,  7.95113800e-02, -1.82123200e-01,
         7.95111660e-02, -6.79518930e-03, -1.61926730e-01,
         6.77770600e-02,  1.86898250e-01,  1.01608320e-01,
         1.07923920e-01, -1.04170170e-01, -1.01586916e-01,
         1.49560990e-01,  1.87985900e-01,  2.71303840e-02,
        -1.19891584e-01,  4.30905900e-02, -1.11391040e-01,
        -7.47299100e-02,  2.16974880e-01,  2.62435540e-02,
         4.55506300e-01,  1.97437270e-01,  4.43932000e-02,
         1.12879390e-01,  1.09271420e-01,  9.45649900e-01,
         7.19493750e-01,  9.32838260e-01,  6.72980600e-02,
        -1.06896390e-02,  1.63853880e-01,  1.15207076e-01,
        -1.61118820e-01, -2.09520820e-01,  2.20322070e-01,
         1.09984145e-01,  1.20341730e-01,  6.09036050e-02,
        -6.31778400e-02,  2.27050450e-01,  1.24316920e-01,
         3.44607200e-01,  1.43338020e-01,  1.13542250e-02,
        -2.39595500e-01, -2.87064580e-01, -1.13706110e-01,
        -3.34144870e-02, -3.52323350e-02,  9.60210300e-01,
         6.64265800e-02, -3.54884180e-01,  2.46297500e-01,
         9.70314300e-01,  7.07263100e-01,  1.28571290e-01,
        -1.20169275e-01,  5.19189500e-01,  2.70790800e-01,
        -3.36059600e-01, -1.73419170e-02,  4.70947900e-02,
         2.76863130e-01,  3.15838900e-02,  2.33086330e-01,
        -1.23413040e-01, -2.62778300e-01,  1.13723790e-01,
         4.49362060e-02,  5.57446070e-02, -4.25434350e-01,
        -3.57722980e-02, -4.41839000e-02,  3.24579200e-01,
        -2.51595600e-01, -2.46866760e-01, -1.13672440e-01,
        -7.35236700e-02,  4.34796660e-01, -7.97564570e-01,
         2.76955330e-02,  6.98401800e-01,  1.88319820e-01,
         1.86187450e-01, -4.27708740e-02,  1.15766900e-01,
        -1.06720224e-01, -3.29043460e-02,  7.87526800e-02,
         5.08263400e-02,  2.42559000e-01,  3.21994350e-02,
         4.42757960e-01, -2.17960610e-01, -1.85133220e-01,
        -1.41053780e-01, -8.45751200e-02, -9.20410600e-02,
        -7.01567160e-02, -2.01916890e-01, -2.01498430e-01,
        -6.36360200e-02,  1.21841930e-01,  5.72939340e-01,
         3.19396930e-02, -1.73423840e-01,  6.78205430e-01,
        -4.32219900e-01, -8.56770200e-02,  7.40281800e-01,
        -8.96959100e-02,  1.61231470e-01, -1.11818960e-01,
        -1.54124700e-01, -1.76056950e-01,  1.19307905e-01,
         2.00647820e-02, -8.93135800e-02,  6.50630100e-02,
         3.71113640e-02,  3.53825060e-01, -5.23719560e-02,
        -4.09197780e-01, -4.93412320e-01, -3.34633440e-01,
        -2.70273630e-03, -3.07203560e-01, -4.88070400e-01,
         1.56621040e-01,  1.09377146e-01,  2.09568840e-01,
        -4.91397570e-02, -2.85578160e-01,  2.74010630e-01,
         9.34887300e-01,  4.10636450e-01,  1.96348010e-01,
        -1.09287480e+00,  1.09958450e+00,  3.63671180e-01,
        -1.07839930e-01,  1.03817180e-02, -3.62586380e-02,
        -2.13622130e-02, -1.92416340e-01,  9.96102300e-02,
         4.92163300e-01,  2.61230470e-01,  3.10989980e-01,
        -3.77890530e-01, -4.09208710e-01,  1.93768460e-02,
         5.12728170e-02,  9.86021400e-02, -2.09679300e-02,
        -4.72246970e-02,  1.60691380e-02, -2.26800830e-01,
         1.97912200e-01, -3.05119340e-01, -1.10113700e+00,
        -6.99050600e-01,  6.92450700e-01,  9.07616500e-02,
        -1.25357500e-01, -1.21456900e+00,  9.01508750e-01,
         1.23434000e-01, -6.42495100e-02,  2.79054940e-01,
        -1.76946390e-02, -1.67599980e-01,  6.19343200e-02,
         2.44107280e-01,  3.39295240e-01, -4.59755900e-03,
         2.62089800e-02, -1.50637790e-01, -1.38479380e-01,
        -1.03044710e-02,  1.55966250e-02, -3.99824830e-02,
         5.10857100e-02,  1.42637710e-01,  1.87023650e-01,
        -1.46601530e-01,  1.84569690e-01,  2.30812010e-01,
        -3.92980520e-01, -1.29614700e+00,  3.60891370e-02,
        -1.82674180e-01, -6.24608140e-02, -9.66975000e-01,
         3.51207320e-01, -2.51665600e-01, -1.77852940e-01,
         7.81457200e-02, -1.99734230e-01,  1.65452350e-01,
         1.58730670e-01,  1.90964860e-02,  1.45426150e-01,
         2.47293160e-01,  1.47100880e-03, -6.24168800e-01,
        -2.73655680e-01, -4.34438970e-01, -1.83867990e-01,
         1.30134060e-01,  8.35346360e-02,  8.88229700e-02,
        -2.02173000e-02,  5.91615100e-02,  2.84205050e-01,
        -5.50181870e-01, -5.50243700e-01, -8.41770500e-01,
         2.89021370e-01, -2.25578700e-01, -4.49711560e-01,
        -5.21812500e-01,  3.37676900e-01,  2.40098650e-02,
         2.36780640e-01, -6.38088200e-02, -7.34463000e-02,
         1.84222520e-01,  6.54266600e-02,  1.00056320e-01,
         2.81927970e-01, -2.73974610e-02, -1.61154260e-01,
        -2.29883790e-01, -2.16093120e-01, -1.08309310e-01,
         2.17577270e-02,  2.93890350e-02,  2.07694410e-01,
         8.77740760e-02,  1.09727130e-01, -1.34422510e-01,
         7.10535470e-01,  3.05227330e-03,  4.22208420e-02,
        -4.77328150e-01,  2.80583600e-01, -1.84581850e-01,
        -2.89104300e-01,  2.37720850e-01, -2.79640880e-01,
         1.42604860e-01,  1.51069160e-01, -3.45116100e-02,
         1.69676750e-01, -6.13012160e-03,  1.93270330e-01,
         1.34345860e-01,  3.68576820e-01,  2.61585920e-02,
        -4.27267520e-01, -1.18674720e-01, -3.27158500e-01,
        -3.67510770e-01,  5.64549300e-02,  8.43049000e-02,
         1.06191690e-02,  4.52420040e-02, -3.41452400e-03,
        -6.73027500e-02,  3.98491140e-01,  1.92233920e-01,
        -4.01232120e-01, -1.01787300e+00, -5.52675200e-01,
         6.98456760e-01,  2.61564170e-01,  3.90992370e-01,
         8.01612730e-01, -2.12803070e-01,  1.40017100e-01,
         1.64641450e-01, -2.61821280e-02,  2.04254760e-01,
         2.60672720e-01,  7.74114200e-02,  7.96658800e-02,
         2.83744740e-02,  9.75855000e-02, -2.02517520e-01,
        -3.88595820e-01,  3.78475600e-02, -6.61086300e-02,
         5.27138500e-01,  2.27703470e-01, -1.24576610e-02,
         1.05989770e-01,  4.81306720e-02,  2.61785920e-01,
         4.42361830e-01,  4.67731680e-01, -9.78689400e-01,
        -1.15883900e+00,  4.19983600e-01, -9.16551100e-03,
         3.18196330e-01,  3.00778030e-01,  3.73240380e-01,
        -6.06016930e-01, -3.43466760e-01,  1.47171310e-02,
         1.05634786e-01,  1.15154430e-02, -8.90632600e-02,
         1.51872070e-01, -2.89181680e-01,  1.25755640e-01,
        -4.31420680e-01, -2.51174600e-01,  1.44091350e-01,
         2.35278670e-01,  4.70605280e-01,  4.15078700e-01,
         1.77828100e-01,  3.13547040e-01,  4.42893770e-02,
         5.95035700e-02,  3.05242500e-01,  4.36150850e-01,
        -6.66175900e-01, -1.39710000e-01,  3.30474260e-01,
         7.04118100e-02, -5.44927000e-02,  1.75982210e-02,
         1.22738846e-01,  1.01114820e-01,  7.69214400e-02,
        -1.38267950e-01,  1.53804180e-04, -9.78862600e-02,
         1.34735870e-01,  5.08418830e-02,  2.28818550e-01,
        -1.83104700e-01, -7.94831400e-01,  1.71920200e-01,
         1.80007370e-01,  5.05939070e-01,  1.34779470e-01,
         5.21496400e-03, -9.52384600e-02,  5.18991570e-02,
         1.45207900e-01, -9.69368100e-03,  3.39452920e-01,
         3.68990720e-01, -8.92456700e-03,  5.90518000e-01,
        -5.16715000e-02, -2.12102460e-02,  7.78691700e-01,
        -4.57260240e-02,  4.22456300e-01,  2.58092760e-01,
         9.19709800e-02,  3.91237800e-01,  1.23615170e-01,
         2.68338320e-01,  1.06659910e-02, -3.55791700e-01,
        -1.52693320e-03, -5.44383900e-01, -1.05719290e+00,
         1.12723900e-01,  2.87927300e-01,  5.89303140e-01,
        -2.62883370e-01, -3.12200370e-03,  6.92337700e-02,
        -2.48388800e-01,  2.00272230e-01, -5.00623660e-02,
         2.61340440e-01,  5.54210300e-01, -4.66504500e-01,
        -1.24367680e+00, -3.35195500e-01, -8.67149600e-02,
        -4.50845570e-01,  2.74964570e-01,  4.83413370e-01,
        -1.03710620e-01, -4.62907340e-01, -3.87487230e-01,
        -4.82721800e-01, -3.71974080e-01, -4.31655470e-01,
        -3.85028300e-01, -4.72704800e-01, -9.30083100e-01,
        -1.04667590e+00,  6.23183700e-02,  4.11688900e-01,
         4.30889040e-01,  2.97779200e-01,  8.92642200e-02,
         3.46283230e-01, -2.75839500e-01, -2.48123240e-01,
         1.02973770e-01,  4.86933380e-01,  6.95964930e-01,
         2.22907140e-01, -1.64679740e+00, -1.81972650e-01,
        -2.24962830e-03, -1.05431470e+00,  2.91722700e-01,
         5.13850330e-01,  3.87380360e-01, -5.15434440e-02,
        -3.67635400e-01, -4.19853240e-01, -5.96271630e-01,
        -1.05639120e+00, -7.36680600e-01, -9.59234360e-01,
        -6.02869150e-01, -3.71154730e-02,  2.24844500e-01,
         1.79977400e-01,  1.84779660e-01,  1.30953860e-02,
         8.10211600e-02,  3.45444920e-01, -4.25361130e-02,
         4.93500440e-01,  2.47689770e-01,  5.46511350e-01,
         3.75625300e-01,  8.25236100e-02, -1.09269310e+00,
        -4.19301360e-01, -3.89977200e-02, -1.27247500e-01,
        -2.28543880e-01, -1.81182160e-01, -2.25671860e-01,
        -3.93219440e-01, -4.13697960e-02, -6.89325330e-01,
        -4.47088100e-01, -1.78684730e-01, -1.47078770e-01,
         9.31232350e-02, -5.15651960e-02,  1.93610150e-01,
         2.96593430e-01,  1.08831340e-01,  1.76730870e-01,
         7.31370300e-02,  4.99299080e-01,  4.78177700e-01,
         4.09486470e-01,  1.76289170e-01, -1.87841560e-01,
         8.78322540e-01,  2.63270530e-01,  7.29774950e-01,
         3.95293950e-01, -4.98706200e-01, -2.04544300e-02,
        -2.85676640e-02, -2.70314700e-01,  3.72887580e-01,
        -4.47621550e-01,  3.71950300e-01,  7.28705800e-02,
        -3.97862400e-01,  1.07731566e-01, -1.75148870e-01,
         1.76386390e-01, -1.27285930e-01,  4.23373300e-01,
         1.75204300e-02,  2.21969220e-01,  3.36335240e-01,
         3.67516040e-01,  3.04566560e-01,  4.59742300e-01,
         5.17020340e-01,  7.27169400e-02, -7.97938000e-03,
        -1.48147140e-01, -1.15076480e-01,  5.76733100e-01,
         6.59180600e-01,  1.31553260e-01,  4.94501670e-02,
        -7.90456800e-02, -7.55746800e-02, -8.82705100e-02,
        -3.00967400e-02, -1.15366780e+00, -3.17045450e-01,
         4.07995760e-01, -4.60725520e-01,  1.41969920e-01,
         3.42667760e-01,  2.17973600e-01,  2.99205630e-01,
         4.24767260e-01,  1.03034390e-01,  7.55877100e-02,
         3.17355360e-01,  2.95476000e-01,  8.39094100e-01,
         4.67015950e-01,  3.52115700e-01,  1.74642520e-01,
         1.09167510e-01,  1.08581130e-01, -3.02456900e-01,
        -6.69743800e-01, -8.97219360e-01, -9.43035600e-01,
        -3.09496370e-03, -4.14496550e-02,  8.22800300e-02,
         9.67583000e-01,  7.65690150e-01, -7.48495340e-01,
        -5.74066000e-01, -1.53791830e+00, -1.12976620e+00,
        -5.38090900e-01, -5.89991870e-03, -1.93132390e-01,
        -4.26913800e-02,  4.71791000e-02,  1.17466890e-01,
         2.63613970e-01,  5.85351650e-01,  4.76562380e-01,
         2.97223630e-01,  9.33207040e-01,  1.39278010e-01,
        -6.16293900e-01, -6.46205200e-01, -5.34621830e-01,
        -1.93713130e-01, -4.72169370e-01, -3.14336100e-01,
        -1.03152790e+00, -4.85874820e-02,  4.84760180e-02,
        -7.73497600e-02, -3.02630510e-02, -4.30895800e-02,
         2.83119120e-02,  4.21355930e-01,  1.28113390e+00,
         4.56039850e-01,  3.81689670e-01,  5.83203730e-01,
        -2.30746720e-01,  2.01624500e-01, -1.32674980e-01,
        -2.57290200e-01, -7.92909860e-02,  7.00565200e-01,
        -1.25688070e-02,  8.02753900e-02,  1.35021390e-01,
         4.62842640e-01,  2.37100600e-01,  1.72810960e-01,
         2.22427160e-01,  5.53955000e-01,  4.01393560e-01,
         4.12103760e-02,  5.58189230e-02, -4.10816520e-02,
        -6.20165020e-02,  3.01971660e-02, -4.63577060e-02,
        -7.97801400e-02, -2.81954740e-02, -3.05223100e-02,
        -7.43750450e-01, -5.84376340e-01, -4.93145050e-01,
         4.24698800e-01, -1.94789930e-01,  9.98951300e-02,
         2.34333230e-01,  2.18597370e-01,  2.80457400e-01,
         3.93755440e-01, -2.77058750e-01,  1.05701980e+00,
         6.66456800e-01,  5.61590300e-01,  2.39115120e-01,
         5.25345400e-01,  7.54360800e-01,  5.25218100e-01,
         1.20281580e-02, -9.64939600e-04,  1.43086690e-02,
        -7.65341450e-02],
       [ 5.73601350e-02, -3.41624360e-02, -1.55203715e-02,
         4.68983280e-02, -7.02576100e-02,  2.70973970e-02,
        -1.44235570e-02,  3.67489600e-02,  7.07475600e-02,
        -4.84885400e-02, -7.21781400e-02, -2.20680980e-02,
         3.62338270e-01,  9.07205000e-01,  7.35468400e-01,
         2.54597570e-01,  2.80574260e-02, -2.92903400e-02,
        -6.75537000e-02, -6.49809540e-02,  2.87404950e-02,
        -2.53750230e-02, -3.51653660e-02, -4.59096000e-02,
         2.32377200e-02,  5.44215070e-02,  5.96951020e-02,
        -2.37198620e-02,  4.45316060e-02,  8.32428260e-02,
         5.13549820e-02, -4.72550800e-02,  6.47249900e-02,
         7.11087660e-02,  7.04874400e-02,  8.83326800e-02,
         8.02012000e-01,  7.87187700e-01,  1.55600920e+00,
         1.69757870e+00,  1.49836680e+00,  1.59743960e+00,
         1.14569080e-01,  1.75725190e+00,  1.07621560e+00,
         8.92695250e-01,  1.14364760e+00,  1.54980410e+00,
         1.05640980e+00,  7.28500500e-01,  5.86959300e-01,
         5.43370200e-01,  8.10664800e-02,  7.30268300e-02,
        -6.41292400e-02, -3.63011840e-02,  2.89487620e-02,
        -4.50695120e-02,  8.74148460e-02,  1.26115010e+00,
         1.31323270e+00, -1.26063320e-01,  1.00768960e+00,
         1.58310370e+00,  1.33783780e+00,  1.26562920e+00,
        -5.18547300e-01, -5.43439750e-01,  1.28384830e-01,
        -4.81824870e-01, -8.59008000e-01, -4.68983440e-01,
         5.10198950e-01,  2.18079520e-01, -5.40822000e-01,
        -7.01017300e-01,  1.02459710e-01,  8.06583900e-01,
         5.82152300e-01, -1.54602170e-01,  1.33964650e+00,
         4.97865020e-01, -7.56122800e-02,  4.10387740e-02,
        -7.49208900e-02,  8.43923300e-02,  1.46908420e-01,
         1.43023860e+00,  8.57990150e-01, -3.17985500e-01,
         1.71277870e-01,  2.82849640e-01,  6.52571700e-02,
         2.59105950e-01, -2.00383720e-01,  2.18816500e-02,
        -9.86596640e-02,  1.04267540e+00,  2.73875330e-01,
        -3.80063060e-01, -3.66913150e-02, -1.04664320e-01,
        -4.24662230e-01, -2.92035900e-01, -7.19860200e-01,
        -4.96703500e-01, -1.90369530e-01,  5.11846100e-01,
         9.91080050e-01, -4.52877580e-01, -4.38932200e-01,
        -5.25071730e-02,  6.08146200e-04,  2.11935430e-02,
        -3.11672240e-01,  1.38920960e+00, -9.42900500e-01,
        -1.44241200e+00,  6.32374940e-01, -6.17483800e-01,
        -6.23850400e-01,  1.84007380e-01,  1.76404120e-02,
         1.93904650e-01, -2.78471080e-01, -1.86742770e-01,
         2.89744620e-01, -3.61390600e-02, -1.78669850e-01,
         1.66546850e-01,  5.34579200e-02, -2.71661340e-01,
        -8.99940600e-02,  9.65341850e-02,  1.21259440e-01,
         4.20909200e-01, -8.44948050e-01, -3.62400530e-01,
        -7.94359700e-01,  1.15923200e+00,  6.11546100e-02,
        -2.15499030e-02,  1.58623080e+00,  1.01396470e+00,
        -1.13615010e+00, -1.34280880e+00, -8.64823160e-02,
         9.32048500e-02, -5.61004900e-02, -8.43563800e-02,
         3.79927250e-01,  3.09097260e-01, -6.90153240e-02,
         3.21038250e-01,  2.42152600e-01, -2.28705020e-01,
        -1.89727400e-02,  2.39517750e-01,  2.02704790e-01,
         4.05630000e-02, -3.35394680e-01,  2.65753440e-02,
        -2.39140270e-01, -2.82586300e-01, -5.54930450e-01,
        -6.81951000e-01,  5.67815400e-02,  9.17550700e-01,
        -5.67689430e-02,  1.34414370e-01, -3.66020000e-01,
         3.34950950e-01,  2.51463800e-01, -2.66878430e-01,
        -2.35582580e-01,  3.02504960e-01,  1.24615160e-01,
        -3.29848860e-01, -2.00698550e-01,  1.17337140e-01,
         2.41659360e-02,  3.05201100e-01,  1.20207590e-01,
         2.85855400e-01, -3.29503270e-02, -6.50252600e-02,
        -4.71009300e-02,  3.51780580e-02, -3.54691450e-02,
         9.77628400e-02, -5.13175760e-02, -4.92236400e-01,
        -4.76823240e-01, -6.48509560e-01, -8.42370500e-01,
        -3.60645680e-01,  4.21735120e-02,  3.90325750e-01,
         6.97524000e-01,  5.22117900e-01, -5.27380500e-01,
        -5.08414750e-01, -7.57617130e-03, -2.27071930e-01,
        -3.82096950e-01,  2.23202300e-01,  2.19912220e-01,
         2.20526810e-01, -6.77501740e-03,  3.11153810e-02,
        -1.09631920e-01,  4.72767100e-02,  6.16734800e-02,
         1.51964290e-01,  1.47123890e-01,  6.13567050e-02,
        -3.10530040e-01,  1.10966590e-02, -9.55242200e-02,
         1.37642470e-01,  1.73766640e-01,  2.75501580e-01,
        -1.48227160e+00,  4.44800940e-01,  8.22111400e-01,
         8.99420300e-01,  7.91691800e-01,  9.18821750e-01,
        -6.69948300e-01, -3.71151450e-01, -1.16150300e-01,
        -1.51940510e-01, -1.50816660e-01, -5.90100030e-02,
        -1.20743990e-01,  1.87671120e-01,  2.09165130e-01,
        -1.58244070e-01,  7.91603300e-02,  4.74412140e-02,
         3.58045070e-01,  2.70289930e-01,  3.51204400e-02,
         5.83706900e-02,  1.42636020e-01,  3.58139070e-01,
        -8.55686300e-02,  2.44720470e-01, -9.31084900e-03,
        -5.63976900e-01, -6.10194150e-01, -1.01942420e-01,
         9.06289400e-03, -2.12586950e-01,  8.12192900e-01,
         4.31482820e-01,  3.92165040e-02, -6.95237400e-02,
        -4.44635840e-03, -4.21518500e-01,  3.08192580e-02,
         2.91445530e-02,  1.62779910e-01,  1.86835790e-02,
        -6.34655200e-02,  1.85812830e-01,  1.27677070e-01,
        -2.60143000e-01, -7.02359500e-02,  2.54347120e-02,
         9.99042900e-02,  3.80717580e-01,  6.64484600e-02,
        -2.42841690e-03, -6.16653500e-01,  1.98773430e-01,
         6.32351000e-01, -6.32357060e-01, -5.54123630e-02,
         9.68779300e-02,  3.58943860e-02, -1.37649160e-01,
         1.88569050e-01,  2.76331100e-02, -1.51752440e-01,
         3.25064800e-01, -1.10494554e-01, -7.49852000e-02,
         2.69806090e-02,  3.08177680e-01, -8.65341050e-02,
         2.84342340e-02,  1.56018360e-01, -3.82961180e-01,
         1.32825670e-01, -4.21533900e-01,  4.76694960e-02,
         3.03412820e-01,  6.80452770e-03, -7.20429600e-02,
        -6.63979200e-02,  3.58664040e-01,  1.30942930e-01,
         3.78596720e-01,  5.35746750e-01,  1.02454670e-01,
         6.01137500e-01, -4.04072300e-01,  5.70428300e-02,
        -5.85905900e-01, -3.98816530e-01, -5.46283960e-01,
        -5.02811550e-01, -2.92413920e-01,  4.63393720e-01,
         5.46717980e-02, -2.49278580e-01,  2.28612520e-02,
        -2.03211340e-01, -3.27578900e-02, -4.25597300e-01,
        -1.90964190e-01, -2.22233700e-01, -6.61940000e-01,
        -5.91010200e-01, -4.18370000e-01, -3.20909470e-01,
        -4.75406800e-02, -3.90133170e-01,  1.44483920e-01,
        -1.08649224e-01, -9.79011200e-02, -3.95436350e-01,
        -6.61284270e-01, -1.59880480e-03, -5.76514070e-01,
        -6.70136100e-02,  1.13694850e+00, -3.41014000e-01,
         7.26469200e-02, -2.56622000e-01, -2.63110430e-01,
         4.56497000e-01, -1.64573700e-01, -1.93870760e-02,
         2.08538870e-01, -2.74790880e-01,  1.38703910e-01,
         1.81602840e-01, -7.81004950e-02, -4.49737970e-01,
        -2.51506150e-01, -5.65899500e-01, -3.11362860e-01,
        -4.24867240e-01, -1.37312350e-01, -1.19952090e-01,
        -3.06949850e-01, -5.50720600e-01, -4.66571330e-01,
        -3.49626100e-01, -1.32548340e+00, -1.08613200e+00,
        -6.87743400e-01, -4.14115200e-02,  1.13338030e+00,
         7.73739400e-01,  3.98074270e-01,  3.48416180e-01,
        -4.46413100e-01,  2.50033140e-01,  2.43183460e-01,
         2.69719600e-01,  1.82522900e-01,  2.50303570e-01,
         2.95617360e-02,  1.58964530e-02, -3.11964840e-01,
        -2.89389370e-01, -3.89384660e-01, -7.51954100e-01,
        -3.63582220e-01, -1.80773880e-01, -1.91925320e-01,
        -4.24643600e-01,  1.54342590e-02,  2.93054940e-01,
         4.67646000e-01,  3.28386550e-01, -9.25678700e-02,
        -1.28480050e+00,  1.21574380e-01,  6.63899000e-01,
        -5.89384000e-01, -5.66488300e-01, -2.00084640e-01,
         1.61852400e-02,  4.38491340e-01,  1.08785300e-01,
         3.53125500e-01,  8.64193000e-03,  8.33117740e-02,
         3.42251200e-01,  1.16857250e-01,  1.37459980e-01,
        -1.59457000e-01, -7.82021100e-01, -3.84558200e-01,
        -3.16336300e-01, -1.34722560e-01, -2.30165870e-01,
        -5.25704250e-02,  4.78808840e-02,  2.13480920e-01,
         6.43609760e-02,  1.21164010e-02,  4.27567870e-01,
        -3.59650300e-01, -1.00328370e+00,  6.91020600e-01,
         6.49587500e-01, -2.31843850e-02, -1.24886160e+00,
        -1.03807780e+00,  2.95091300e-01,  6.51377900e-01,
        -4.02265340e-01,  4.21830650e-01,  3.99540280e-01,
         5.40309600e-01,  2.91701260e-01,  4.32309730e-02,
         1.68400000e-01, -4.49010800e-01, -1.55895720e-01,
        -6.65532650e-01,  4.51309050e-02, -2.74881270e-01,
        -1.84158890e-01, -4.05061700e-03, -8.91645700e-02,
         1.15739560e-01, -2.26207380e-01,  2.70578440e-01,
         8.93369500e-01, -2.14971660e-01, -7.44487760e-01,
         1.59580200e+00,  2.81163200e-02, -4.67865500e-02,
        -1.12492510e+00, -1.37604360e+00,  3.06636100e-03,
         3.75520350e-01,  2.58175640e-01,  3.68669540e-01,
         4.38574880e-01,  5.27793800e-01,  3.16037300e-01,
         2.67793540e-01, -1.25027820e-01, -6.09956860e-01,
        -6.05232100e-01, -4.77277870e-01, -2.66100560e-01,
        -4.91419170e-02, -1.39790670e-01,  1.22262165e-01,
         1.05061370e-01,  2.86463600e-01, -1.45012500e-01,
        -3.42228900e-02, -6.22479700e-01, -1.54452260e-02,
        -4.56846620e-01,  5.36617200e-01, -2.07282380e-02,
        -5.53307530e-01, -6.00100100e-01, -3.79171880e-01,
         1.07394630e-01,  3.01646560e-01,  3.35806820e-01,
         2.41915350e-01, -5.98413650e-02,  2.49733210e-01,
         4.48276600e-01,  2.90553480e-01, -2.41484910e-01,
        -4.99465730e-01, -2.06282200e-01, -1.31455120e-01,
         2.39462180e-01, -5.05811800e-02, -9.74158000e-02,
        -3.64665400e-02,  1.68728980e-01, -1.14943550e-01,
        -1.34665940e-02, -2.00589910e-01, -3.07259980e-01,
         2.52518740e-01, -1.00705730e+00,  2.50943730e-02,
         2.97085980e-02, -4.82684850e-01, -5.46541750e-01,
        -9.38798550e-01,  5.78393040e-01,  1.13611630e-01,
         1.94339300e-01,  2.25013010e-02,  1.23887196e-01,
         2.74180950e-01,  1.98400650e-01,  5.10785600e-02,
        -2.92229150e-01, -2.57132260e-01,  1.55760660e-01,
         4.09285300e-03,  2.85496740e-01,  1.02985315e-01,
         1.94812490e-01,  1.03406830e-01, -1.85397200e-01,
        -1.08164640e-02,  1.43686860e-01,  1.94118050e-01,
         3.24893330e-01,  2.10076060e-01,  7.64486500e-01,
         1.55554070e+00,  4.09016530e-02,  1.13778800e+00,
         2.16768820e-01, -1.46475580e-01,  1.61194470e-01,
        -2.68846660e-01,  2.64402930e-01,  2.91990250e-01,
         3.13010250e-01,  1.18841040e-01,  2.19515430e-02,
         2.33806610e-01, -1.09157880e-02, -7.38732900e-02,
        -6.86611500e-02, -2.36536280e-01, -1.90496240e-02,
         4.79133900e-02, -1.81006540e-01,  1.34340260e-01,
         1.43965420e-01,  2.38734480e-01,  7.04054900e-01,
        -1.17067920e-01,  2.30670850e-01, -1.00113990e+00,
         7.00878740e-01,  6.76927750e-01,  5.56660070e-02,
         1.18334850e+00,  7.64222150e-01,  1.12690610e-01,
         6.60774300e-01,  2.65832540e-01,  2.43173760e-01,
         2.01359260e-01,  1.31524550e-01,  2.16843620e-01,
         3.22989280e-01,  1.39706750e-01,  5.45887000e-01,
        -5.99705470e-02, -1.95911040e-02, -9.16962900e-02,
        -1.78823380e-01, -2.02371750e-01, -1.07977460e-01,
         4.09370000e-03,  1.92068730e-01,  3.71650760e-01,
         4.59078040e-01,  2.71484460e-01, -6.68490900e-01,
        -9.29818330e-01,  5.72549940e-01,  1.83053170e-01,
        -1.69218480e-02,  7.26870200e-01,  4.94189860e-01,
         9.88152150e-01,  1.62356450e-01, -6.20896150e-02,
        -3.18573080e-02,  2.37824950e-01,  6.00946250e-02,
         9.53761100e-02,  3.29415140e-01,  2.65597300e-01,
         1.05090275e-01,  3.53821030e-02,  1.17701106e-01,
         1.72200520e-01,  1.47048920e-01, -2.33783400e-01,
        -2.51189680e-01, -1.96985070e-01,  2.07679450e-01,
         9.84068800e-02,  6.89255700e-01,  3.27297150e-01,
        -6.19408370e-01, -4.86815100e-01,  4.50778420e-01,
         8.37909900e-01, -6.75962300e-02, -6.70006200e-02,
         6.96973500e-01,  1.41121760e+00, -8.39123600e-01,
         5.79594850e-01,  1.57958080e-01,  2.04991400e-01,
         6.33799700e-02,  2.49959690e-01,  4.06806500e-02,
         8.84312300e-02,  2.40061240e-01,  3.47801980e-01,
        -7.82837400e-02,  7.33337600e-02,  1.76272540e-01,
        -3.15001000e-03, -1.79919540e-02, -2.37549020e-01,
        -1.71742540e-01, -2.27643290e-02,  6.26634100e-02,
        -7.36710500e-02,  2.41963640e-01, -4.12579180e-01,
        -2.10414260e-01,  8.88517500e-01, -5.26929800e-02,
         5.59363300e-02,  3.23511270e-01,  3.20952600e-01,
        -2.14486080e-01,  1.14476270e-01,  2.19687180e-01,
         1.85321400e-01,  2.51250450e-01,  1.08509906e-01,
         7.27959700e-04,  5.28369880e-02,  2.17355330e-01,
         1.33702740e-01, -7.91383700e-03, -4.29884400e-02,
         2.21430700e-01,  7.43356800e-03, -1.50964830e-01,
        -1.49485000e-01, -3.97467940e-01, -8.22439800e-01,
         1.68547620e-01, -3.11348260e-03,  2.43993000e-01,
         3.19219050e-01, -4.33392550e-01, -3.61283120e-03,
         7.41986560e-02, -1.28028990e-02, -2.48158480e-01,
        -4.94295200e-01,  5.80333650e-01,  2.39196730e-01,
        -2.27615040e-01, -1.56139500e-01,  1.55868770e-01,
         1.31748800e-01, -1.20200580e-01,  2.65977800e-02,
         4.05089300e-01,  7.79358900e-02, -4.08705030e-01,
         3.68262020e-01,  1.37307840e-01,  2.55041050e-02,
         6.02391400e-01,  2.56213300e-02, -5.02021850e-01,
        -3.68154080e-01, -1.85089630e-01, -4.54791930e-01,
         3.72624250e-01,  5.40270500e-01,  6.71039100e-01,
         7.47342800e-02, -1.73830990e-03,  6.68524900e-02,
        -4.59131800e-01, -7.23155140e-02,  5.08854870e-01,
        -9.74324100e-01, -9.14739130e-01, -1.25221740e+00,
        -1.71895240e+00, -1.00751200e+00, -8.19714500e-01,
        -6.06688140e-01, -4.93893200e-01,  1.21776650e-01,
         1.84209530e-01, -1.09345070e-01, -2.80222730e-02,
        -5.33663260e-02,  4.59959730e-02, -6.93851800e-01,
        -1.38726910e+00, -9.87467500e-01, -6.99805140e-01,
        -6.75219100e-01, -2.87764250e-01,  6.03055800e-01,
         6.34060140e-01, -2.11897120e-02, -7.33976900e-02,
         2.51620040e-02,  4.91312520e-02,  2.02524480e-02,
         6.94255900e-02, -2.65754130e-01, -1.13257830e+00,
        -1.09276690e+00, -1.27702470e+00, -6.11754400e-01,
        -1.38630240e-01, -1.37758520e-01,  2.54507450e-01,
        -7.07445200e-01, -1.14137790e+00, -1.09388850e+00,
        -7.98611340e-01, -1.08823860e+00, -3.86175660e-01,
         1.44512900e-01, -1.19419880e+00, -1.35338560e+00,
        -5.56820330e-01, -4.63882540e-01, -2.83722800e-01,
        -9.92660500e-02,  6.49226500e-02,  7.21328900e-02,
         6.44339600e-03,  3.60766800e-03,  7.76222350e-03,
         6.76549150e-02, -1.22392510e-01,  1.89628200e-02,
        -3.94878200e-02, -2.67875700e-02,  2.90411830e-01,
         3.30030680e-01,  3.66873300e-01,  3.28230100e-01,
         3.05958500e-01, -5.69144300e-01, -1.57073450e+00,
        -1.32900920e+00, -1.14456770e+00, -5.82437300e-01,
        -2.18928780e-01,  2.95771480e-01, -1.55705850e-01,
        -7.16227400e-01, -6.24336060e-01, -5.64976000e-01,
        -3.59420330e-02,  1.55108570e-02,  6.64153600e-02,
        -5.99869100e-02],
       [-8.56296640e-02,  5.07698000e-02, -3.80073100e-02,
         7.02895900e-02, -3.30847900e-02,  5.02279920e-02,
         3.02432630e-02, -3.23947150e-02, -2.96971650e-02,
         7.30621600e-02, -7.18909400e-02, -3.69825960e-03,
         3.85882350e-01,  1.62679100e-01, -3.10837780e-01,
        -1.17140810e-01, -5.44388740e-02, -3.19655720e-02,
        -5.78868540e-02, -8.21605850e-02,  7.88925100e-02,
        -4.08434120e-02, -1.32954420e-02,  2.63110700e-02,
        -8.37610500e-02, -1.28366430e-02,  4.55149500e-02,
        -8.03890900e-02, -4.21196260e-02,  8.47885200e-02,
        -8.32947500e-02,  7.75280800e-02,  3.13321740e-01,
         6.76108600e-01,  4.94525070e-01,  1.08688820e+00,
         1.01343370e+00,  1.04414340e+00,  1.39302070e+00,
         1.43834570e+00,  1.92147480e+00,  1.20065430e+00,
        -4.27214000e-01,  3.95653220e-01, -1.50774930e-01,
         2.84108800e-01,  1.56313480e+00,  2.41940780e+00,
         1.80909780e+00,  1.58753370e+00,  1.36560860e+00,
         1.21765040e+00, -1.15599710e-02, -3.83832900e-02,
        -1.23767030e-02,  3.59778260e-02, -4.39611930e-02,
         5.59517220e-02,  2.71585760e-01,  1.38185600e-01,
         1.00216220e+00,  1.03967100e+00,  4.43996370e-01,
         1.55231000e+00,  7.82789470e-01, -8.05334500e-01,
        -2.69240900e-01,  9.81865050e-01,  1.68557500e-01,
        -4.50757400e-01,  8.34431000e-02,  3.52878150e-01,
         1.53017800e-01,  5.51372700e-01,  3.93250800e-01,
         6.38590500e-01,  6.26508200e-01,  8.38796900e-01,
         1.06971300e+00,  1.80454070e-02,  1.43275060e+00,
         7.12997850e-01,  5.17380460e-02,  4.16487460e-06,
         4.51019630e-02, -5.19147550e-02, -7.76929260e-01,
        -5.03794600e-01,  2.97427180e-01,  1.02980040e+00,
         9.28410530e-01,  9.23052200e-01,  8.43651000e-01,
         6.20659100e-01,  1.01989694e-01, -8.31792000e-02,
        -3.69450900e-01, -1.73757370e-01,  1.61940100e-02,
        -8.84272200e-02,  1.78319710e-01,  1.08418904e-01,
         3.95836200e-01,  6.60619900e-01, -1.65609750e-01,
         8.61439300e-01,  8.37366500e-01,  7.46333400e-01,
         2.81162860e-01, -1.43588200e+00, -9.61924600e-01,
        -4.57015150e-02, -1.63358380e-02, -7.31263760e-02,
        -6.68858500e-01, -4.88247040e-01,  4.30641060e-01,
         3.75195350e-01, -2.99192900e-01, -2.03857850e-01,
        -1.02361850e+00, -1.10656610e+00, -5.65923150e-01,
        -3.47823020e-01, -2.43288060e-01, -7.01611900e-02,
        -4.12940980e-01, -6.69475000e-02,  2.00160500e-02,
         2.32938270e-01, -1.40697000e-01,  1.41958500e-01,
         2.62108110e-02,  1.62246690e-01,  1.21521264e-01,
         1.14584520e-01, -3.56875540e-01, -3.50470070e-01,
        -8.89479640e-01,  5.45138600e-01,  7.43303200e-02,
         6.20986900e-02, -3.51500200e-01, -4.02264120e-01,
        -1.07427746e-01,  3.30749030e-01, -2.40886060e-01,
        -4.79342640e-01, -7.58562600e-02, -2.19024270e-01,
         7.27799000e-02, -1.12825620e-01,  1.14500836e-01,
         3.18923370e-02, -4.40955070e-03, -1.15426540e-01,
         6.08216820e-02,  3.44550880e-01,  3.32612800e-02,
         1.45702030e-01,  2.92201220e-01,  3.69211080e-01,
         1.32757920e-01,  5.55545330e-01,  1.74128410e-01,
        -1.84850590e-01,  2.81896000e-01,  2.99480830e-01,
        -6.25496360e-03,  4.23225520e-01,  8.68897300e-01,
        -4.86456900e-01, -3.03360640e-01,  8.19770300e-01,
        -7.09773360e-01, -1.22323520e+00, -2.89215950e-01,
        -4.46555230e-01, -1.51285890e-01, -3.24957370e-01,
        -1.59202200e-01,  1.46976910e-02,  2.90443480e-01,
         2.49719200e-01,  5.29773700e-03,  2.50847800e-01,
         3.74381200e-02,  1.61791340e-01,  2.18741540e-01,
        -5.90401600e-02,  1.03711240e-01,  1.64392350e-01,
         6.50668860e-01,  6.59980650e-01, -4.15163160e-01,
         7.43780700e-01,  7.04731300e-02,  1.15564190e+00,
         5.28717500e-01, -4.86429870e-01, -3.76933930e-01,
         2.89414580e-01, -1.10409010e+00, -1.23835440e+00,
        -5.28537150e-01, -2.51055450e-02, -1.62043710e-03,
        -1.36141420e-01, -2.51254530e-01, -2.18490990e-01,
        -1.64141450e-01,  2.81428640e-01,  1.97336810e-01,
         3.15307950e-01,  2.10797130e-01,  4.87035740e-02,
         2.19307630e-01,  2.32233300e-01,  2.71377980e-01,
         3.05024740e-02,  1.72733160e-01, -9.32244900e-01,
        -3.57431440e-01,  9.30739200e-01, -4.87862200e-02,
         4.70071430e-01, -4.78528900e-01, -1.02218220e+00,
        -1.55226330e-01,  5.89755650e-01,  1.79007830e-01,
        -3.74493900e-01, -4.95050700e-01, -1.08266950e-01,
         2.40907710e-01,  1.86249230e-01, -2.84822020e-02,
        -5.71476330e-02, -3.44445400e-02, -4.23013800e-02,
         1.88342690e-02, -1.47456810e-01, -2.84796100e-01,
        -5.84792270e-02,  1.56101260e-02,  3.28006570e-01,
         1.75712360e-01, -2.01229420e-01, -5.78053500e-01,
        -1.37348310e+00, -1.91278980e-02,  1.13009140e+00,
         1.10133370e-01,  1.61776170e-01, -2.81411400e-01,
        -1.15039250e+00,  1.80661540e-01,  4.57956980e-02,
        -1.22416810e+00, -8.99852800e-01, -1.77339520e-01,
        -1.42044900e-01,  9.99198400e-02,  2.95798800e-01,
         4.95809260e-01, -1.16265530e-01, -1.77975330e-01,
        -6.46549640e-01, -6.78201500e-01, -8.10640040e-01,
        -8.94707500e-01, -7.68683900e-01, -9.98427100e-01,
        -5.78840430e-01, -3.02304660e-01,  3.19829140e-01,
         4.80461780e-01, -7.81188130e-01, -3.92722930e-01,
        -6.85541150e-01,  5.78600840e-02,  1.69659690e-01,
         3.69039480e-01, -1.76615430e-01,  8.01176000e-02,
        -3.90077530e-01, -8.33443600e-01,  9.53232600e-02,
        -2.23781760e-01,  3.13704220e-01,  2.94061700e-01,
         1.92402800e-01,  4.12615120e-01, -3.07690560e-02,
        -5.19623800e-01, -6.44875470e-01, -4.79300470e-01,
        -4.94888720e-01, -2.28782240e-01, -9.15895500e-01,
        -7.86794960e-01, -4.34885740e-01, -4.12946460e-01,
        -3.44348000e-01, -1.06530610e+00, -1.33453980e+00,
         1.34481300e-01, -7.73269500e-01, -3.23163570e-02,
         9.65955900e-02, -1.10846230e+00, -9.23974930e-01,
        -1.79834100e-01, -8.89281500e-01,  3.55946830e-02,
         3.34141850e-01, -1.15650035e-01,  1.27782960e-02,
         1.25585960e-01, -1.00646070e-01,  2.58512700e-01,
         2.71453800e-01,  3.28443940e-02, -3.27739500e-01,
         2.59406030e-01,  6.39100900e-02,  4.06203500e-02,
         4.00922240e-01, -3.15016630e-01, -5.52489760e-01,
        -9.27944200e-01, -1.18632570e+00, -1.13835970e+00,
        -2.21356060e-01,  9.17726160e-01, -1.16719640e+00,
        -7.93164450e-02, -1.68060000e-01, -1.08828450e+00,
        -7.12001500e-01, -8.31976060e-01, -1.05288170e+00,
        -5.49880380e-02,  3.40645160e-02,  9.28472650e-02,
         8.11351240e-02, -3.27895170e-02,  1.28965150e-01,
        -2.11499570e-01,  3.12751260e-01, -8.57680300e-03,
        -1.00094500e-01,  3.18889600e-02,  7.65091400e-02,
         6.03247250e-02,  1.23633124e-01,  5.46872400e-01,
         1.06422490e-01, -2.25297260e-01, -3.19450080e-01,
        -6.85549700e-04, -8.25241400e-01, -2.90970240e-01,
        -1.26744090e+00, -6.57676860e-03, -1.16117810e-01,
        -9.82391500e-01, -8.40596800e-01, -5.47440100e-01,
        -5.71833000e-01, -2.10909280e-01,  4.12400780e-01,
         2.50415820e-02, -1.41425920e-01,  1.93596110e-02,
        -7.16992300e-02, -2.15273710e-01,  3.44843000e-01,
        -3.10925450e-01,  2.63902460e-01, -2.53438320e-02,
         1.02860010e-01,  9.52958760e-02,  7.15290700e-02,
         1.03873830e-01,  2.03989970e-02,  1.23898710e+00,
         1.58799340e-01, -1.06668640e+00, -1.16028330e+00,
        -8.10886700e-01, -9.32786800e-01,  1.10492050e+00,
        -2.88989840e-01, -2.46369700e-01,  1.44613500e-01,
        -7.06386270e-01,  1.92449440e-01, -9.31941100e-02,
        -3.81470470e-02, -1.16160650e-01, -3.18423630e-01,
         2.31927830e-01,  1.55987935e-02,  2.69627780e-01,
         2.10779800e-01, -7.08872000e-02,  1.84918500e-01,
         1.72311480e-01,  5.67687700e-03, -2.40561980e-01,
         2.78180900e-02,  2.16962750e-01,  5.84982000e-02,
         4.55276160e-01, -4.68186140e-01, -6.19933200e-01,
        -3.59527680e-01, -1.54530320e+00, -1.18666260e+00,
         9.39010000e-01, -2.32874350e-01,  1.79162500e-01,
         4.10248080e-02, -3.24605320e-01, -5.60829400e-01,
         4.37280160e-02,  6.02216000e-02, -5.30064400e-02,
        -8.55279500e-02,  3.17546500e-01, -1.19894505e-01,
         2.67910480e-01, -4.32134300e-01, -1.12839810e-01,
        -4.70194440e-02, -1.96204600e-02,  7.40815800e-02,
         2.41325210e-01,  6.68842800e-02,  3.02294940e-02,
         3.74783200e-01,  1.49370970e-01,  1.70232470e-01,
        -7.18486800e-01, -5.56123900e-01, -1.96701010e+00,
        -7.02011800e-01, -1.67446060e-01, -3.34715520e-01,
        -6.55395750e-01, -2.84598400e-01,  3.63431700e-01,
        -3.47279500e-01, -3.43893830e-01, -2.00054750e-01,
         3.27390250e-01,  2.58464700e-01,  5.00447870e-01,
         4.36940670e-01,  4.15581670e-01, -1.43624650e-01,
         2.04943830e-02,  4.43796900e-01,  1.41548450e-01,
         1.34720270e-01, -5.72292500e-03,  4.34317630e-02,
        -3.05952220e-02, -3.82339480e-01,  9.00235500e-02,
        -1.94469050e-01, -1.14649510e-01, -5.87399500e-01,
        -1.45255510e+00, -6.93935700e-01, -4.36191600e-02,
        -3.76959350e-01, -9.44126900e-01,  5.96816660e-01,
        -4.43154930e-01, -8.70816100e-01, -2.47858750e-01,
        -4.52852850e-02,  7.52496100e-02,  1.24950020e-01,
         3.44130640e-01,  3.50749460e-01,  3.20010960e-01,
        -8.16040260e-02, -2.98748400e-01, -9.51663600e-03,
        -4.40178300e-02, -1.19342230e-01,  4.15571800e-01,
         1.43621620e-01,  3.38078700e-01,  4.00916600e-01,
        -1.38137930e-02,  3.16666440e-02, -3.22642920e-01,
        -7.01067800e-01, -9.31692060e-01, -3.81898220e-01,
         2.89070600e-01, -2.68322970e-01, -1.62844900e+00,
         2.47682400e-01, -3.93491270e-01, -2.55394100e-01,
         7.52148100e-02,  2.50206560e-01,  3.34056880e-02,
        -1.24584670e-02,  1.89085850e-04,  1.69108580e-01,
         3.40121450e-01, -3.88030830e-01, -3.41776520e-01,
         2.10705580e-01,  1.34200530e-01,  7.52831550e-02,
         1.73931210e-01, -1.17470970e-01,  6.28266400e-03,
        -6.90041340e-03, -3.03877060e-01,  1.07219650e-01,
        -1.52448610e+00, -2.51523230e-01, -5.79884050e-01,
        -5.02477100e-01, -7.10103300e-02, -6.42741400e-01,
         7.72029000e-01,  2.48565450e-01, -2.95510680e-01,
        -1.88876510e-01, -2.30879300e-01, -2.73353200e-01,
         3.07078790e-02, -3.34827020e-03,  3.09136850e-02,
         1.88424420e-01, -1.06058140e-01, -3.32492470e-01,
        -2.94439880e-01,  2.95707260e-01,  2.69949850e-01,
         1.95156130e-01,  2.82954250e-01,  3.72143400e-02,
         1.06634470e-01, -4.18169400e-02, -9.19916300e-02,
         3.21191880e-01, -9.39133900e-01, -5.49342700e-03,
         4.37503640e-01, -6.14953040e-01, -5.92962350e-02,
         2.96531620e-01,  7.92749170e-01,  6.40825700e-01,
        -2.17610960e-01,  8.86223700e-03, -3.04293700e-01,
        -8.22840700e-02,  9.15392100e-02, -1.04062930e-01,
        -5.51824530e-02, -6.23080320e-02, -1.73723610e-01,
        -2.42389650e-01, -8.52808950e-02,  2.49894620e-01,
        -1.89077880e-01,  6.96753300e-02,  9.21801000e-02,
         2.47403350e-01,  1.33481790e-01,  5.83304200e-01,
        -2.14383900e-01, -3.35797600e-01, -9.71773450e-01,
         1.04369550e-01,  4.34737680e-01,  2.75721300e-01,
        -8.41655700e-02, -3.21200430e-01, -4.49995800e-01,
         4.19941840e-01,  4.87703420e-02, -1.55194410e-02,
        -1.44793720e-01,  2.67727500e-01, -1.06359540e-01,
         6.58419100e-02, -6.95680100e-03, -8.41949100e-03,
         2.11999200e-01,  2.16826080e-01, -4.04918050e-03,
         7.97402260e-02, -2.35422270e-01,  2.06132770e-02,
         8.35777200e-03,  9.97516500e-02,  2.10506780e-01,
        -2.61421320e-01,  7.72386940e-02, -2.67437220e-01,
        -1.65769100e+00,  3.29383460e-01,  4.33645250e-01,
         7.33830500e-01, -1.04992260e-01, -1.05017014e-01,
        -7.67302330e-01,  1.59070360e-01, -1.58084140e-01,
        -3.27956350e-01, -8.65674400e-02,  9.70136200e-02,
         3.48211380e-02, -7.56109800e-03,  2.64195770e-01,
         3.10891540e-01,  3.36830560e-01,  3.11373400e-01,
         8.09081400e-02,  2.83028160e-01,  2.64625940e-02,
        -1.41786780e-01, -1.09034220e-01,  3.78039400e-01,
        -3.53486630e-01, -1.65769920e+00, -6.37389660e-01,
        -9.84075070e-01, -1.87601890e+00,  2.06249450e-01,
         4.11143420e-01,  9.04437000e-01, -2.05025970e-02,
         2.99331840e-02, -1.22266690e+00, -1.27864170e-01,
        -4.08339100e-01,  1.72189740e-01,  3.37493100e-01,
        -1.66397410e-01,  1.39165210e-01, -6.46621200e-02,
         2.43617190e-01,  2.04100010e-02, -1.70148450e-01,
         1.98059510e-01,  1.61855070e-01,  1.08386560e-01,
        -4.09466800e-02, -4.28732100e-02,  2.64209570e-01,
        -2.16442470e-01, -3.73278050e-01, -3.39273750e-01,
         5.33823800e-01,  4.65634380e-01, -1.47556500e+00,
        -1.14299050e+00, -1.31901440e+00, -5.70197630e-02,
         4.78048400e-02,  2.55009680e-02, -1.20249210e+00,
         1.61511140e-01,  3.42581700e-01,  9.45897100e-02,
         5.91692270e-01,  3.84321480e-01,  4.80193940e-01,
         2.16345190e-01,  3.87229100e-01,  1.71777430e-01,
         1.35368650e-01,  5.73489500e-01,  1.18147194e-01,
         1.33169650e-01,  3.68914600e-01, -4.49949400e-01,
         4.78372070e-01, -8.55354100e-01,  2.70948530e-01,
        -2.39963670e-01,  1.07219490e-01,  4.07361060e-01,
         1.47988160e-01,  2.49367790e-01,  1.25474450e-01,
        -2.72501860e-02,  5.67186250e-02,  2.83253940e-03,
        -4.24349930e-01, -7.60448800e-01, -2.66383950e-01,
        -2.53285560e-01,  1.21640460e+00,  2.42167590e-01,
         2.99327280e-01, -8.93784760e-02,  8.12673800e-01,
         7.04209400e-01,  5.56731600e-01, -6.70207200e-02,
         4.51393070e-01,  6.60336730e-01,  3.95572840e-01,
         6.56966000e-01,  3.75650730e-01,  8.84426530e-01,
         8.43337830e-01,  2.86641700e-01,  1.39571690e+00,
        -5.99819500e-01, -7.80697700e-01,  3.56157270e-02,
         5.63076960e-02,  7.92342200e-02, -9.08435100e-03,
        -8.29031200e-02, -4.48339660e-02,  9.73189100e-01,
         1.34929250e+00, -9.73859900e-02, -3.49793260e-01,
        -2.34921380e-01,  1.01390360e-01,  4.46563120e-01,
         9.59235300e-01,  1.07547270e+00,  8.91182240e-01,
         6.36302100e-01,  1.01582710e+00,  2.52539630e-01,
         6.58490400e-01,  3.92323050e-01,  1.55960680e-01,
        -2.09927730e-02, -1.07644920e-02, -1.98032380e-01,
         1.12428230e-02,  1.50500110e+00,  3.52881300e-01,
        -5.55977100e-02, -3.69962160e-02, -2.47982930e-02,
         1.13216490e-02,  6.00371300e-02, -4.30753400e-02,
         1.67014750e-02,  7.61236600e-02,  7.00754300e-02,
         3.48782570e-01,  2.60619940e-01,  1.47152570e-01,
        -7.01746100e-01,  6.06539100e-01,  5.88273600e-01,
         1.98151870e-01,  1.18333760e+00,  1.54867790e+00,
         7.94480600e-01,  8.24209800e-01,  3.22846770e-01,
         6.19750140e-01,  1.55222760e-01, -9.00383100e-01,
        -9.87834300e-01, -9.31130230e-01,  4.11274950e-02,
         4.06386630e-02, -6.71187940e-02, -6.13439830e-03,
        -6.02416900e-02],
       [ 8.25611100e-02,  6.69909200e-02,  2.27130950e-02,
         1.17133630e-02,  7.49100500e-02, -5.75726550e-02,
         4.33641150e-02,  8.73909900e-03, -3.39114300e-02,
         9.55295600e-03,  4.98919400e-02, -6.46309200e-02,
         9.51657800e-02,  7.83372500e-02,  1.14599070e-01,
        -8.70940160e-04,  8.15233660e-02,  1.18280720e-02,
         5.23237500e-02, -2.94503230e-02, -2.91678350e-02,
        -2.57253870e-02, -3.02726920e-02, -8.10469000e-02,
        -8.24740400e-02,  5.35432470e-02, -6.11160770e-02,
        -6.80720400e-02,  8.29573200e-02, -5.16249300e-02,
        -4.18728900e-02,  2.11315300e-02, -5.52098040e-02,
         2.27998800e-02,  8.95412200e-02,  2.74890180e-01,
         2.86046270e-01,  9.03619650e-01,  8.63423500e-01,
         8.27124700e-01,  5.92215600e-01,  5.42804500e-01,
         1.73824940e-01,  4.72256030e-01,  7.32028800e-01,
         5.66992040e-01, -4.93384080e-02, -1.40711500e-01,
        -2.52604840e-01, -1.18913060e-01, -4.57746350e-02,
         8.05715400e-02, -4.54337200e-02,  2.33954640e-02,
         3.11043860e-02,  7.23291400e-02,  8.64670950e-02,
        -7.24800900e-02, -3.33654360e-02, -4.67172940e-02,
        -4.53126540e-02, -1.96039720e-01,  3.88503820e-01,
         5.90311050e-01,  7.96722600e-01, -2.35818090e-01,
         5.60515700e-01,  4.16174680e-01, -2.43195410e-01,
        -9.31750540e-01, -8.37491000e-01, -5.88853470e-02,
         3.84938400e-01,  4.56388680e-01,  6.04384800e-01,
         3.86780020e-01,  3.70037020e-01,  2.35475990e-01,
         2.40310100e-01,  4.42098950e-01,  1.81780320e-01,
         7.51533200e-02, -7.44966640e-02, -2.07286920e-02,
        -6.94601500e-02,  9.72814900e-03,  3.52713350e-02,
         2.56607680e-01,  8.93351730e-01,  3.51737950e-01,
         6.92043200e-01,  2.49913950e-01,  1.12676320e-01,
        -8.72295700e-01,  3.15491650e-01,  3.18697840e-01,
         7.16094550e-01, -4.64224580e-01, -3.78975700e-01,
        -5.36078330e-02,  1.44248530e-01, -2.92586300e-01,
        -4.05140070e-01, -3.55989660e-01, -3.41637870e-03,
        -2.09176450e-01, -8.32320030e-01, -3.41411830e-01,
         5.39082400e-01, -1.55793830e+00, -2.96032520e-02,
         2.43098360e-02, -4.59527080e-02,  3.79989620e-01,
         4.49713770e-01,  8.70168030e-01,  4.69448240e-01,
         5.77808660e-02, -5.64644750e-01, -3.78237460e-01,
         7.55468670e-01,  5.28195740e-01,  3.81126600e-01,
         5.46619360e-01,  4.48155520e-01,  9.28072850e-02,
         2.62684760e-01,  1.78384780e-01, -9.63367200e-02,
         1.27375860e-01,  4.02030400e-01, -2.77837540e-01,
        -4.16486020e-01, -1.11154440e-01,  1.55443240e-01,
        -3.11552460e-01, -1.66364540e-01, -2.77097700e-01,
         1.52347850e+00,  6.89009600e-01,  2.90235650e-02,
         7.89333950e-02,  7.27296900e-01,  9.18166600e-01,
         2.23204880e-01, -9.05421100e-02, -7.33853400e-02,
        -2.08269480e-01, -1.73189120e-02, -1.28882080e-01,
        -1.90293700e-02,  4.59307880e-01,  1.48861740e-01,
        -1.72934180e-02,  1.14613950e-01,  9.02417150e-02,
         3.90902040e-01,  1.98157130e-01,  3.36528780e-01,
         2.24135300e-02,  2.26174060e-01, -6.76095770e-03,
        -1.96714800e-01, -2.46755720e-01, -5.62468200e-01,
        -4.26647500e-02,  1.34091990e+00,  1.08772910e+00,
        -5.79255070e-02,  9.40548360e-01,  1.12557850e+00,
         4.77385250e-01,  1.04377046e-01,  3.13878540e-01,
         6.48976900e-01, -5.46741040e-02,  4.35754100e-01,
         4.15457130e-01,  1.32089500e-01,  3.71759330e-01,
         2.24364710e-01,  5.38964870e-01,  2.24238190e-01,
        -7.87337940e-02,  2.65522100e-01,  1.40533910e-01,
         1.66501100e-01, -3.57724840e-02,  3.35043880e-01,
         7.72158350e-02,  2.50743930e-01,  1.73476430e-01,
         2.83455070e-01,  1.28769230e+00,  2.92527680e-01,
         1.13709910e+00,  4.75211380e-01,  1.23342240e+00,
        -8.24415760e-02,  5.52747200e-01,  5.35880300e-02,
         2.88815900e-01,  1.25554280e-01,  1.50954040e-01,
         1.32701220e-01,  1.32287980e-01,  3.46344500e-03,
         8.28938860e-02,  2.96097500e-01,  1.69231220e-01,
         3.17767400e-01,  1.55568180e-01,  3.22881880e-01,
         8.79341400e-02,  8.93977800e-02,  4.11684030e-02,
         8.94414800e-02, -4.68383100e-02, -2.45766840e-02,
         1.92227410e-01,  4.46634860e-01,  1.11200080e+00,
         4.80782270e-01,  1.14084080e+00,  6.47137340e-01,
        -5.97901800e-01, -5.80554100e-01,  2.03092130e-01,
         2.06277360e-01,  3.06190180e-02, -1.29593010e-01,
        -1.31399290e-01,  2.71858070e-01,  2.08671390e-01,
         4.20827030e-01,  1.95230140e-01,  1.71431450e-01,
         9.56945900e-02,  4.92898520e-01,  2.08117590e-01,
         2.46845810e-01,  4.06493660e-02,  2.12243560e-01,
         4.15383200e-01,  3.09668480e-01,  2.12351830e-01,
        -3.43691520e-02,  6.50680800e-01,  2.81516820e-01,
         3.62381800e-01,  9.10094900e-01,  3.80325380e-01,
         6.37008000e-01,  2.02548560e-01,  2.89512340e-01,
         2.97308530e-01,  2.60470840e-01, -2.93807980e-01,
        -7.52549800e-02, -5.16530160e-02,  1.59182940e-01,
         1.07663810e-01, -2.20073690e-01, -1.97619610e-02,
        -2.08358020e-01, -2.56625700e-01, -1.13220260e-01,
        -1.75026370e-01, -1.54344930e-01, -3.45996430e-02,
        -1.04591420e-01, -6.68558800e-02, -7.83895100e-02,
         2.30204660e-01,  4.66649200e-01,  2.52783500e-01,
         1.47997310e+00,  1.68509690e+00,  1.11343680e+00,
         1.10827300e+00,  6.37830700e-01,  6.56258100e-02,
         4.90815300e-01,  3.52888640e-01,  6.31801300e-02,
         1.83077680e-02,  4.24992860e-01,  2.51697790e-02,
         4.23270520e-01, -3.01832990e-02, -2.42747870e-02,
        -1.91840620e-01, -7.52287360e-02, -3.53185830e-01,
        -1.12948980e-01, -3.22001430e-01,  1.98116530e-01,
        -4.26834200e-01, -3.89946700e-01, -7.61555600e-01,
        -3.23236380e-01, -1.28909480e-01, -3.01357330e-01,
         1.19956754e-01,  8.41259840e-01,  9.23355160e-01,
         1.68516110e+00,  6.49054050e-01,  8.93318240e-01,
         1.42056000e+00,  4.66438560e-01,  6.69502540e-02,
        -2.42063120e-01, -2.14926180e-01,  1.38078940e-01,
        -9.42987900e-02, -6.34712060e-02, -2.28797500e-01,
        -1.93245280e-01, -2.21768160e-01,  4.75585160e-02,
         4.45846650e-02, -2.39661580e-02, -1.67059720e-01,
        -1.46108340e-01, -1.64301840e-02, -2.00172480e-01,
        -2.30384500e-01, -7.27624800e-01, -1.09611820e+00,
        -1.65448240e+00, -1.59876640e+00, -1.84656350e+00,
        -3.02223240e-01,  7.82404840e-01, -1.84948060e-01,
         7.85589640e-01,  5.18326040e-01,  3.39510170e-01,
         2.72568560e-02, -1.76709580e-01,  2.83903900e-01,
        -3.46884370e-01, -3.74042100e-01, -1.94472520e-01,
        -2.92182700e-01,  2.40004730e-02,  3.73043000e-02,
         7.76876400e-02,  1.42943080e-01,  2.03405200e-01,
        -2.20918830e-01, -1.57489840e-01, -3.22235080e-02,
        -8.37421340e-02, -1.06798880e-01,  1.44932080e-01,
        -2.37059650e-01, -9.27001060e-01, -1.97435810e+00,
        -2.89241150e+00, -2.24364610e+00, -6.08318300e-01,
        -7.90671000e-01,  1.76390870e-01, -6.69057500e-02,
        -5.62002540e-01, -1.64161310e-01, -5.23557960e-01,
         4.75016330e-01, -1.43554750e-01, -1.22955050e-01,
        -3.10837750e-01,  1.54024470e-01, -1.12264445e-02,
         1.45652530e-01,  2.29566680e-01,  1.82893860e-01,
         1.19924420e-01, -3.00194260e-01, -7.45106600e-02,
        -1.23432920e-01, -1.78029210e-01, -2.55763380e-01,
        -1.46008160e-01, -3.70036930e-01, -1.66795450e-01,
         2.71206800e-01, -1.04982890e+00, -1.29079370e+00,
        -1.35992450e-01, -9.70036450e-01,  1.00255330e+00,
         7.87095300e-01, -6.38292600e-01, -1.21832100e-01,
        -2.22031650e-01, -4.24010930e-01,  1.32458330e-01,
         2.42657030e-03,  4.99345850e-02,  2.06891200e-01,
         8.63588700e-02, -5.73250470e-02, -1.18447330e-01,
        -1.63526440e-03,  1.17814650e-01, -2.25479080e-01,
        -2.38575650e-01, -1.38275430e-01, -2.21902060e-01,
        -3.59819320e-01, -1.65183500e-01, -1.63025320e-01,
        -2.52518620e-01,  3.36821350e-01,  4.83284260e-01,
         7.43900400e-02, -6.91423360e-01, -9.64176650e-01,
         1.03301560e+00,  8.17479250e-01,  1.10839580e+00,
         6.25743500e-01, -2.87199000e-01, -3.64131630e-01,
         9.39088500e-02, -2.17498180e-01, -1.05163360e-01,
         1.17045560e-01, -1.17725775e-01, -1.59403830e-02,
         2.62755840e-01, -3.86052720e-03, -3.52068360e-01,
        -1.41335310e-01, -1.13693530e-01, -2.41198270e-01,
        -3.00697860e-01,  2.72659640e-02,  4.68747900e-03,
         7.18322550e-02,  5.59322130e-02,  1.95802640e-01,
         2.15518680e-01,  6.86225530e-01, -3.77423440e-01,
         7.24445040e-01,  4.83577770e-02,  1.21942630e+00,
         1.44372690e+00,  1.18091370e+00, -1.15269970e-01,
        -3.37516550e-01, -3.85678300e-01, -5.61878200e-01,
        -5.07622000e-01, -2.79133080e-01,  1.48801900e-01,
        -6.82716200e-02,  2.53727970e-01,  1.69078750e-01,
        -7.19638240e-02, -2.30213170e-01, -4.58567920e-01,
        -2.28790270e-01,  2.90479880e-02,  3.65064650e-01,
         7.97238500e-02,  5.25037240e-02,  3.25439270e-01,
         1.27666670e-01,  4.26129700e-01,  3.34382240e-01,
        -9.53907850e-01,  5.71003900e-01,  6.27653500e-02,
         1.20819120e+00,  5.24494800e-01,  9.04512640e-01,
         1.86359940e-01, -3.08296900e-01,  8.66550900e-02,
        -4.46390780e-01, -5.98931200e-01, -5.82631770e-01,
        -8.54931530e-01, -4.97372120e-01, -4.14283400e-01,
        -1.75612430e-01, -3.34259600e-01, -6.96736000e-02,
        -1.36465620e-01,  1.35460100e-01,  1.16912104e-01,
         2.11012080e-01,  7.07427500e-02,  2.60247740e-01,
         2.55226700e-01,  2.13958430e-01,  9.43867860e-02,
        -6.78557000e-01,  9.42406900e-02,  1.68834090e-01,
        -4.80038700e-02,  6.54183570e-01,  4.73714020e-02,
         1.05243920e+00,  1.10551660e+00, -5.69136800e-02,
         1.33140930e-02,  1.85217000e-01, -2.37486960e-01,
        -5.70001240e-01, -6.33318070e-01, -1.07985150e+00,
        -1.00475610e+00, -8.30031400e-01, -3.56863800e-01,
        -6.17194470e-02,  4.42878450e-01,  4.11256880e-01,
         3.99134900e-02,  4.46270230e-01,  2.10827600e-01,
         2.98458070e-01,  3.03526760e-01, -1.35226950e-02,
        -2.15753700e-01,  2.28160770e-01,  6.31547200e-01,
         7.82530250e-01, -4.93065270e-02,  9.10889300e-01,
         3.35671160e-01,  1.10808750e-01,  7.36861300e-01,
         3.28977080e-01,  4.76743900e-01, -5.21638060e-03,
         3.44091860e-01,  1.08758350e-01, -2.56742130e-02,
        -3.38998020e-01, -3.25351730e-02,  4.90105100e-02,
        -2.33365390e-01, -1.58066400e-01,  2.22729760e-02,
         1.44523410e-01,  5.05729260e-01,  1.12609625e-01,
         1.03349276e-01,  3.20610880e-01,  5.48444900e-01,
         3.32012900e-01,  5.56909740e-02,  4.98441600e-01,
        -7.40104200e-01,  4.19313670e-01,  9.99494600e-03,
         1.17397680e+00,  1.22686340e-02,  1.02991200e+00,
         9.01275800e-01,  8.13267350e-01,  7.23871050e-01,
         3.57015430e-01,  3.74877840e-01,  1.70082460e-01,
         2.31092530e-01,  1.86525630e-01,  1.11865380e-01,
        -1.87584390e-02, -1.22467265e-01,  4.75144240e-02,
        -2.16805800e-01, -1.03775114e-01,  2.03796550e-01,
         1.31527740e-01,  4.11524440e-01,  1.18776960e-01,
         5.73968400e-01,  2.99302600e-01, -4.26769320e-01,
        -3.37127200e-01, -4.11766600e-01,  3.82275580e-01,
        -3.27304040e-01,  1.13883500e+00,  5.50434030e-02,
         7.26003050e-01,  1.45818960e+00,  1.67464300e-01,
         3.73184680e-01,  4.00787700e-01,  4.76440160e-01,
         2.22609650e-01,  3.91619600e-01,  3.04758000e-01,
         1.54749890e-01,  6.90173700e-02,  1.87503730e-01,
         2.61281460e-01,  9.62715740e-02, -1.22446630e-01,
         9.04033850e-02,  9.94405600e-02,  4.58420840e-01,
         5.58129550e-02,  1.31265180e-01,  2.82674340e-01,
        -2.69702080e-01, -2.74526860e-01, -2.45480900e-01,
         4.81592000e-02, -4.19231920e-01,  2.29646900e-01,
        -2.35159490e-02,  4.25812930e-01,  5.84745900e-01,
        -1.36402350e-01,  2.24254850e-01,  3.14804350e-01,
         2.63798100e-01,  4.91148830e-02,  1.40693250e-01,
         1.72320300e-01,  2.12422890e-01,  2.23010800e-01,
         1.00060060e-01,  2.85456630e-01, -7.48480560e-02,
         5.94576670e-02, -2.03434230e-01, -2.76124680e-02,
         2.19669130e-01,  1.17621360e-01,  5.95753100e-01,
         1.27604770e+00, -9.19251560e-01, -9.42610260e-01,
        -9.67134460e-02,  4.12214500e-02, -5.23451400e-02,
        -2.31386130e-02,  2.39643500e+00,  9.99393460e-01,
         2.11968470e-01,  4.04446240e-01,  1.26089800e-01,
         3.49061100e-01,  3.95979900e-02,  3.03929060e-01,
         4.21925780e-01,  4.52638200e-01,  7.12086560e-02,
         2.99239870e-01,  2.30070300e-01,  2.81788050e-01,
         5.23851500e-02,  8.16467850e-02,  1.39456360e-01,
        -2.63142300e-01,  2.17340370e-01,  1.44158180e-01,
        -2.12888670e-01, -3.29201430e-01, -1.34456800e+00,
        -1.20175840e+00, -1.85368630e-01, -3.51834300e-03,
         3.88925750e-02,  1.15833060e-02, -5.22638860e-01,
         1.36156870e+00,  9.37373340e-01,  3.71713530e-02,
         4.39071240e-01,  2.52601920e-01, -2.62233230e-01,
         3.67720280e-01,  1.55305890e-01,  2.38983480e-01,
         2.50538740e-01,  2.66334900e-01,  3.47613040e-01,
         1.78841110e-01,  2.81838420e-01,  4.22528100e-01,
         8.56650800e-02, -4.69866870e-01, -3.23197700e-01,
        -5.94088850e-01, -5.93038800e-01, -4.84512930e-01,
        -1.03161750e+00,  2.75684200e-01, -8.33443640e-01,
        -6.16082700e-02,  2.51599920e-02, -5.03720530e-02,
         1.42854710e+00,  3.67131860e-01,  9.88926200e-01,
         5.35154640e-01,  3.09970170e-01,  5.36561700e-01,
         6.99768070e-01,  7.63764600e-01,  4.63106040e-01,
         3.70487200e-01,  5.18874500e-01,  3.02271300e-01,
        -6.22127240e-02,  3.70093000e-01,  3.78312920e-01,
         4.31152900e-01,  5.81635600e-01,  4.67804370e-01,
        -5.02496360e-01, -1.02443114e-01,  1.36310190e-02,
        -6.56424460e-01, -6.64240400e-01, -7.93374850e-02,
         1.35590700e-01,  7.89986600e-02,  3.88360400e-02,
         5.47546670e-02,  3.25557740e-02,  1.39969610e-03,
         3.15731140e-01,  4.87234060e-01,  4.35556260e-01,
         1.64284450e-01,  3.65933360e-01,  5.82384100e-01,
         3.91576950e-01,  9.88846400e-01,  6.45939770e-01,
         5.35237700e-01,  4.15411140e-01,  7.05555000e-01,
         7.90892900e-01,  8.05193200e-01,  1.70089650e-01,
        -7.38645200e-02,  6.63996040e-01,  1.11212610e+00,
         1.20850780e+00,  5.48548640e-01, -3.53660430e-03,
        -1.64871960e-02,  4.45525120e-02,  8.11184000e-02,
        -1.13847550e-02, -4.21067140e-02, -8.32746600e-02,
         5.89744970e-02, -2.86567770e-02,  5.36374150e-02,
         1.49778640e+00,  1.74240710e+00,  2.05917300e+00,
         1.64420080e+00,  1.18475170e+00,  1.28377070e+00,
         1.24870180e+00,  1.59661340e+00,  1.50461080e+00,
         4.04276500e-01,  5.08123460e-01,  1.16015410e+00,
         3.14055170e-01,  8.29107900e-02, -3.23060830e-02,
         1.11385090e-01, -6.80466000e-02, -5.36976600e-02,
        -7.96488400e-02, -9.43392500e-03, -7.45509000e-02,
        -2.89073550e-02],
       [ 2.22189720e-03,  5.53792340e-02, -5.04358670e-02,
         7.81238300e-02,  1.52331960e-02,  8.36515350e-02,
         6.85474200e-02,  8.51063500e-02, -3.31035700e-02,
        -7.86911550e-02, -1.93028820e-02,  6.52170200e-03,
        -2.81773950e-01, -9.00172230e-01, -6.93318500e-01,
        -3.71986900e-01,  3.13490930e-02,  6.24254120e-02,
        -7.08503800e-02,  1.97431520e-02, -8.91806900e-03,
         7.77275100e-03,  7.94722960e-02,  5.41976470e-02,
         4.33145840e-02,  2.08093150e-02, -3.79979600e-03,
         6.63933400e-02, -2.01501700e-03, -8.62937700e-02,
         7.32639500e-02, -2.81911860e-02, -7.41251300e-02,
        -1.05200455e-01, -5.08174400e-01, -2.52250880e-01,
        -2.08433300e-01,  4.32277560e-01, -9.82692840e-01,
         6.36266100e-01,  8.12759160e-01,  5.79109900e-01,
        -2.85237850e-01, -7.22349900e-01, -5.55701600e-01,
        -1.35120880e-01, -8.62732400e-01, -9.50256350e-01,
        -5.77332300e-01, -3.50241360e-01, -9.48792640e-01,
        -1.11521080e+00, -2.80316400e-02, -2.09793670e-02,
        -8.04689500e-02, -1.20791870e-02, -9.80153700e-03,
         6.77997100e-02, -1.65705430e-01,  1.13796470e+00,
         5.54100000e-01, -1.78814650e-01,  3.84696750e-01,
         4.02616530e-01,  4.42747400e-01, -1.62747430e-01,
         3.07852450e-01,  8.45719350e-02,  5.28060260e-01,
         4.65330660e-01, -3.32657840e-01, -5.15156160e-02,
        -2.00479400e-01, -4.23209220e-02,  4.40703150e-02,
        -5.54183000e-01,  5.29697430e-02, -1.05301360e-01,
        -6.61873400e-02, -1.88100600e+00, -1.29207490e+00,
        -8.11457100e-01, -8.68067900e-03, -1.28678310e-02,
         3.29749290e-03,  7.75086800e-02, -2.03079910e-01,
         1.13887990e+00,  5.69581500e-01, -7.72387500e-01,
        -7.60586560e-02,  1.96062770e-02,  2.82678500e-01,
         1.05743180e-01,  9.55484660e-02,  4.26628900e-01,
         5.11954100e-01, -3.67770830e-02, -3.87166500e-01,
        -5.35668320e-02,  1.61388810e-01, -5.94639850e-02,
         1.52995970e-01,  2.66762170e-01,  1.40383170e-01,
         1.38222300e-01,  3.13371200e-01,  3.42866330e-01,
        -4.60902700e-01,  8.65808800e-01,  1.90986800e-01,
        -3.70184560e-02, -7.60483600e-02, -1.87434460e-01,
        -9.11947400e-02,  1.11090600e+00,  5.80412700e-01,
        -3.73816970e-02,  6.64985600e-01,  6.44328360e-01,
         8.94961300e-03, -3.07249400e-02, -1.77421330e-01,
         1.19126834e-01, -7.39153200e-02, -1.62305220e-01,
        -4.65717850e-01,  1.42252090e-01, -1.56612400e-01,
         4.11429230e-01, -3.66452750e-02, -3.67699700e-01,
         1.85365210e-01,  4.02583600e-02,  4.04878220e-02,
         4.56610300e-01,  4.97787650e-01,  6.58403640e-01,
         1.25129760e+00, -5.63271400e-01, -8.21603200e-02,
        -7.22109700e-02, -1.98929690e+00, -1.27595950e-01,
         1.62669300e-01,  6.47829100e-01,  4.37507400e-01,
        -3.34738940e-02,  1.84826150e-01,  1.23192360e-01,
         7.97798900e-02,  8.08576000e-02,  9.23328800e-02,
         2.39180460e-01,  1.41225600e-01, -3.95378320e-02,
        -2.15768070e-02,  3.07031870e-01,  2.00083020e-01,
         1.12320670e-01,  1.36861850e-01, -1.11400396e-01,
         6.78243560e-02, -1.21538610e-01,  4.35969080e-01,
         7.13659200e-01, -4.96476260e-01, -6.40031700e-01,
         6.66022100e-02, -1.12071300e+00, -1.02093590e+00,
        -2.25922430e-02,  4.01608170e-01,  1.64137290e-01,
        -1.11895860e-01,  4.67541370e-02,  1.65455600e-01,
         1.69656070e-01,  6.76149650e-02, -1.15061074e-01,
         1.31676810e-01, -2.47791430e-02,  6.24130480e-02,
         1.51762470e-01,  1.59016680e-01,  1.96965950e-01,
         1.07595450e-03,  3.68524600e-01,  1.71414900e-01,
         1.25131090e-01, -5.02436240e-02,  4.22943120e-01,
         5.53850050e-01,  2.62360870e-01, -2.88946630e-01,
        -8.19413100e-01, -1.93573060e-01, -1.29507400e+00,
        -5.20757500e-01,  6.55186400e-01, -1.78130980e-01,
         1.91857900e-01,  1.92156530e-02,  6.34718500e-01,
         5.48558240e-01,  2.65214150e-01,  3.68755760e-01,
         1.69127600e-01,  1.58471110e-01,  2.03763440e-01,
        -2.18822800e-02,  2.16329830e-01,  3.18211320e-01,
        -8.37672300e-02,  3.79938600e-01, -1.54072300e-01,
         1.22953960e-01,  4.44131670e-01, -2.16159640e-01,
         3.23955200e-01,  1.16306100e+00,  3.44284970e-03,
        -6.32812560e-01, -5.20357250e-01,  2.81499620e-01,
         7.96821950e-01,  7.32911770e-01,  5.51719740e-02,
         2.13710380e-01,  1.10282760e-01,  8.34087700e-02,
         3.39699360e-01,  4.90899900e-01,  1.29862370e-02,
         1.30042270e-01,  2.71786100e-01,  1.69540870e-01,
         1.40543150e-01,  1.30613060e-01,  3.82199700e-02,
         2.46340800e-01, -1.13971160e-01,  7.98274100e-02,
         1.41081230e-02,  1.48533630e-01, -1.99486230e-01,
         2.00902250e-01,  8.62182740e-01,  1.22438050e+00,
        -6.96861600e-01, -2.18367820e-01,  1.02671750e+00,
         2.35524150e-01,  6.32493900e-01,  3.65301340e-01,
         1.80493280e-01,  4.69133700e-01,  2.62783000e-01,
         7.15066300e-02,  7.01479900e-02,  3.64697040e-01,
         4.45425870e-01,  4.83187140e-01,  4.82935520e-01,
         1.76698340e-01,  1.27259080e-01,  3.09249730e-01,
        -3.89397400e-02,  1.38275370e-01,  2.36595080e-01,
         1.39211390e-01, -1.19395890e-02, -8.75379900e-03,
         1.58752900e-01,  2.59176680e-02,  5.77376840e-01,
         9.54791960e-01,  7.01154700e-01, -7.09002140e-01,
        -4.02390400e-01,  3.00936040e-01, -1.38357010e-01,
         1.06008135e-01,  6.05217460e-01,  6.05443800e-01,
         5.27504300e-01,  5.90425250e-01,  6.24318360e-01,
         6.20485960e-01,  9.12753700e-01,  4.23625530e-01,
         3.29022530e-01,  4.05480900e-01, -3.89299100e-02,
        -9.74401500e-02, -7.70906100e-02, -1.84140220e-01,
         5.86045120e-02,  3.34073300e-01,  6.63894340e-02,
         4.72785120e-01,  6.64965400e-01,  7.98400940e-02,
         1.51747240e-01,  5.85245830e-02, -5.03486200e-01,
        -7.06206000e-01,  2.96772600e-01,  3.07297110e-02,
        -8.83623600e-01,  1.16382650e+00,  1.09127760e+00,
         9.79077700e-01,  4.06181600e-01,  6.58218500e-01,
         9.25481260e-01,  5.26255970e-01,  3.27790700e-01,
         3.19351020e-01,  7.00646100e-01,  2.17929380e-01,
        -1.72149550e-01, -2.79468630e-01, -4.97904270e-01,
        -6.53501800e-02,  2.17978730e-01,  1.99618620e-01,
         2.04650360e-01,  5.00407460e-01,  1.36557820e-01,
         5.21846000e-01, -1.90382800e-01, -1.81218090e-02,
        -1.06204550e+00,  1.12285760e+00, -3.20183870e-01,
        -5.25273300e-01,  2.87830230e-01,  9.29469100e-01,
         2.15763870e-01,  4.65627970e-01,  9.39390300e-01,
         6.09605130e-01,  3.07495620e-01,  5.74742100e-02,
        -3.47785300e-02,  1.66814850e-02, -3.57788800e-01,
        -4.14362900e-01, -2.67470200e-01, -2.48477040e-01,
        -2.01244120e-01, -1.48163440e-01,  9.53834200e-02,
         1.63059350e-01,  1.71385080e-01,  2.85974800e-01,
        -7.16662600e-04,  5.58747800e-01,  1.09417310e+00,
         4.42920000e-01, -2.49981150e-01,  8.35774600e-02,
         2.74293120e-03,  1.46998465e-02,  7.38520400e-01,
         5.85298800e-01, -1.42906230e-01, -1.08451670e-01,
        -6.38054640e-03,  5.76277200e-02,  4.03841400e-02,
        -1.09123700e-01, -2.71853240e-01, -2.75318500e-01,
        -2.73086520e-01, -4.48594180e-01, -1.52497620e-01,
